<?xml version="1.0" encoding="ISO-8859-1"?>
<smile version="1.0" id="Sub0" numsamples="1000" discsamples="10000">
	<nodes>
		<cpt id="samesrvrate" dynamic="plate">
			<state id="high" />
			<state id="low" />
			<state id="lowmid" />
			<state id="mid" />
			<probabilities>0.4193099228744179 0.5397086726098739 0.02498590082927959 0.01599550368642856</probabilities>
		</cpt>
		<cpt id="flag" dynamic="plate">
			<state id="OTH" />
			<state id="RSTO" />
			<state id="RSTR" />
			<state id="S1" />
			<state id="S2" />
			<state id="S3" />
			<state id="SF" />
			<parents>samesrvrate</parents>
			<probabilities>0.002502771845476191 3.296324404761904e-005 0.0003234930542857143 5.126212452380953e-005 1.248926666666667e-006 0.0001056395492857143 0.9969826212557142 1.54647449168207e-005 1.549672994454714e-005 2.103013401109058e-005 1.45531719038817e-006 4.317974121996303e-007 1.845534195933457e-005 0.9999276659345657 3.7960461576422e-005 0.001374168655220323 0.007561723699869415 0.0003720125003720126 0 0.000425157154271311 0.9902289775286906 4.397198823089692e-005 0.0019347675527477 0.04750074202466169 0.001780865588057208 1.09929999989007e-005 0.001231215717523937 0.9474974441287797</probabilities>
		</cpt>
		<cpt id="dsthostsamesrvrate" dynamic="plate">
			<state id="high" />
			<state id="low" />
			<state id="lowmid" />
			<state id="mid" />
			<parents>flag samesrvrate</parents>
			<probabilities>0.5000704697442538 0.06909595437686439 0.0243868061818235 0.4064467696970583 0.7425026 0.2574974 0 0 0 0.6 0.4 0 0.25 0 0.25 0.5 0.434653043565347 0.5564069814435931 0.004682843995317157 0.00425713099574287 0.020639835 0.944272446 0.031991744 0.003095975 0.09392265 0.77348066 0.1160221 0.01657459 0.4488636355113637 0.4147727258522728 0.06818181931818182 0.06818181931818182 0.6710768893289231 0.3256696666743303 0.001800238998199761 0.001453204998546795 0.07528517 0.83422053 0.06768061 0.02281369 0.4708835470883547 0.2590361259036126 0.1365462136546214 0.1335341133534113 0.348299 0.1177968 0.2434622 0.290442 0.07185875 0.92814125 0 0 0.05494505 0.94505495 0 0 0.122449 0.877551 0 0 0.3209876532098765 0.5987654359876544 0.0123456801234568 0.06790123067901231 0.241573 0.758427 0 0 0 1 0 0 0.25 0.25 0.25 0.25 1 0 0 0 0.4062167906 0.5914585547 0.0013283741 0.0009962806 0.0086655113 0.9878682842 0.0025996534 0.0008665511000000001 0.05357143 0.92857143 0.01785714 0 0.232142857 0.705357143 0.053571429 0.008928571 0.8854096108091011 0.01434349937229135 0.05250851991885187 0.04773836989975566 0.152172921650647 0.6685137861885397 0.1090672043641405 0.07024608779667282 0.006126976923076925 0.43287805 0.4745862769230769 0.08640869615384615 0.01360613809923274 0.06097186703734015 0.5967263428562659 0.3286956520071612</probabilities>
		</cpt>
		<cpt id="duration" dynamic="plate">
			<state id="high" />
			<state id="low" />
			<state id="mid" />
			<parents>flag samesrvrate dsthostsamesrvrate</parents>
			<probabilities>0 1 0 0 1 0 0 1 0 0 1 0 0 1 0 0 1 0 0.3333333333333334 0.3333333333333334 0.3333333333333334 0.3333333333333334 0.3333333333333334 0.3333333333333334 0.3333333333333334 0.3333333333333334 0.3333333333333334 0 1 0 0 1 0 0.3333333333333334 0.3333333333333334 0.3333333333333334 0 1 0 0.3333333333333334 0.3333333333333334 0.3333333333333334 0 1 0 0 1 0 0.2463271246327125 0.1478942147894215 0.605778660577866 0.4265493426549343 0.1365723136572314 0.4368783436878344 0.3181818 0 0.6818182 0.25 0 0.75 0.2 0.25 0.55 0.2874317 0.4295082 0.2830601 0.2903226 0.516129 0.1935484 0.6666667 0 0.3333333 0.1764705823529418 0.1176470882352912 0.7058823294117671 0.4071429 0.1428571 0.45 0.3333333 0.09523810000000001 0.5714286 0 0 1 0.3291139 0.2278481 0.443038 0.1643836 0.2328767 0.6027397 0.1666666833333317 0.4166666583333342 0.4166666583333342 0.25 0.25 0.5 0.1311894 0.0114415 0.8573691 0.09317349 0.07838828000000001 0.8284382300000001 0.1807229 0 0.8192771 0.4477612 0 0.5522388 0.2626263 0 0.7373737 0.1695533283044667 0.0191431198085688 0.8113035518869646 0.247191 0 0.752809 0.3666667 0 0.6333333 0.383795309 0.002132196 0.6140724950000001 0.2868217 0 0.7131783 0.3970588 0 0.6029412 0.3609023 0 0.6390977 0.3162791 0 0.6837209 0.282907662 0.003929273 0.713163065 0.3526616 0 0.6473384 0.3322709 0 0.6677291 0.00952380999047619 0.007619047992380951 0.9828571420171428 0.00206459220020646 0.0004424126000442412 0.9974929951997493 0.3333333333333334 0.3333333333333334 0.3333333333333334 0.3333333333333334 0.3333333333333334 0.3333333333333334 0 0 1 0.01162791 0.05813953 0.93023256 0.3333333333333334 0.3333333333333334 0.3333333333333334 0.3333333333333334 0.3333333333333334 0.3333333333333334 0 0 1 0 0 1 0.3333333333333334 0.3333333333333334 0.3333333333333334 0.3333333333333334 0.3333333333333334 0.3333333333333334 0 0.5384615 0.4615385 0 0 1 0 0.5 0.5 0 0.4545455 0.5454545 0.3023255830232559 0.0232558102325581 0.6744186067441861 0.6074074076074074 0.007407407007407408 0.3851851853851852 0.3333333333333334 0.3333333333333334 0.3333333333333334 0.3333333333333334 0.3333333333333334 0.3333333333333334 0.3333333333333334 0.3333333333333334 0.3333333333333334 0.7407407 0 0.2592593 0.3333333333333334 0.3333333333333334 0.3333333333333334 0.3333333333333334 0.3333333333333334 0.3333333333333334 0.3333333333333334 0.3333333333333334 0.3333333333333334 0.3333333333333334 0.3333333333333334 0.3333333333333334 0.3333333333333334 0.3333333333333334 0.3333333333333334 0.3333333333333334 0.3333333333333334 0.3333333333333334 0 1 0 0.3333333333333334 0.3333333333333334 0.3333333333333334 0.3333333333333334 0.3333333333333334 0.3333333333333334 0.3333333333333334 0.3333333333333334 0.3333333333333334 0.9846304774 0.0001635056 0.015206017 0.9887703537 0.0003368894 0.0108927569 1 0 0 1 0 0 1 0 0 0.971052632 0.000877193 0.028070175 1 0 0 1 0 0 1 0 0 1 0 0 1 0 0 0.3333333333333334 0.3333333333333334 0.3333333333333334 0.96153846 0 0.03846154 1 0 0 1 0 0 1 0 0 0.000168982102425876 0.3572634542587602 0.642567563638814 0.01175040571428571 0.8345103028571429 0.1537392914285714 0.005393921739130434 0.8978424304347826 0.09676364782608696 0.004753847619047619 0.9809040380952381 0.01434211428571429 0.0004075491566265061 0.894363791807229 0.1052286590361446 0.009061976243093923 0.9180935864640885 0.07284443729281769 0.001008403333333334 0.9117366950000001 0.08725490166666668 0.000957854358974359 0.9617595048717949 0.03728264076923077 0.06644518066445181 0.7940199379401993 0.1395348813953488 0.006143994166666666 0.9889235033333333 0.0049325025 0.005640225384615384 0.9111364453846154 0.08322332923076922 0.02503576666666667 0.9377682333333334 0.03719600000000001 0.01503759 0.69924812 0.28571429 0.1666666666666667 0.7619047761904777 0.07142855714285572 0.006571741818181819 0.9846659363636363 0.008762321818181819 0.002465483333333333 0.9807692333333334 0.01676528333333334</probabilities>
		</cpt>
		<cpt id="protocoltype" dynamic="plate">
			<state id="icmp" />
			<state id="tcp" />
			<state id="udp" />
			<parents>duration flag samesrvrate dsthostsamesrvrate</parents>
			<probabilities>0.3333333333333334 0.3333333333333334 0.3333333333333334 0.3333333333333334 0.3333333333333334 0.3333333333333334 0.3333333333333334 0.3333333333333334 0.3333333333333334 0.3333333333333334 0.3333333333333334 0.3333333333333334 0.3333333333333334 0.3333333333333334 0.3333333333333334 0.3333333333333334 0.3333333333333334 0.3333333333333334 0.3333333333333334 0.3333333333333334 0.3333333333333334 0.3333333333333334 0.3333333333333334 0.3333333333333334 0.3333333333333334 0.3333333333333334 0.3333333333333334 0.3333333333333334 0.3333333333333334 0.3333333333333334 0.3333333333333334 0.3333333333333334 0.3333333333333334 0.3333333333333334 0.3333333333333334 0.3333333333333334 0.3333333333333334 0.3333333333333334 0.3333333333333334 0.3333333333333334 0.3333333333333334 0.3333333333333334 0.3333333333333334 0.3333333333333334 0.3333333333333334 0.3333333333333334 0.3333333333333334 0.3333333333333334 0 1 0 0 1 0 0 1 0 0 1 0 0 1 0 0 1 0 0 1 0 0 1 0 0 1 0 0 1 0 0 1 0 0.3333333333333334 0.3333333333333334 0.3333333333333334 0 1 0 0 1 0 0 1 0 0 1 0 0 1 0 0 1 0 0 1 0 0 1 0 0 1 0 0 1 0 0 1 0 0 1 0 0 1 0 0 1 0 0 1 0 0 1 0 0 1 0 0 1 0 0 1 0 0 1 0 0 1 0 0 1 0 0.3333333333333334 0.3333333333333334 0.3333333333333334 0.3333333333333334 0.3333333333333334 0.3333333333333334 0.3333333333333334 0.3333333333333334 0.3333333333333334 0 1 0 0.3333333333333334 0.3333333333333334 0.3333333333333334 0.3333333333333334 0.3333333333333334 0.3333333333333334 0.3333333333333334 0.3333333333333334 0.3333333333333334 0.3333333333333334 0.3333333333333334 0.3333333333333334 0.3333333333333334 0.3333333333333334 0.3333333333333334 0.3333333333333334 0.3333333333333334 0.3333333333333334 0.3333333333333334 0.3333333333333334 0.3333333333333334 0.3333333333333334 0.3333333333333334 0.3333333333333334 0.3333333333333334 0.3333333333333334 0.3333333333333334 0.3333333333333334 0.3333333333333334 0.3333333333333334 0 1 0 0 1 0 0.3333333333333334 0.3333333333333334 0.3333333333333334 0.3333333333333334 0.3333333333333334 0.3333333333333334 0.3333333333333334 0.3333333333333334 0.3333333333333334 0 1 0 0.3333333333333334 0.3333333333333334 0.3333333333333334 0.3333333333333334 0.3333333333333334 0.3333333333333334 0.3333333333333334 0.3333333333333334 0.3333333333333334 0.3333333333333334 0.3333333333333334 0.3333333333333334 0.3333333333333334 0.3333333333333334 0.3333333333333334 0.3333333333333334 0.3333333333333334 0.3333333333333334 0.3333333333333334 0.3333333333333334 0.3333333333333334 0.3333333333333334 0.3333333333333334 0.3333333333333334 0.3333333333333334 0.3333333333333334 0.3333333333333334 0.3333333333333334 0.3333333333333334 0.3333333333333334 0 1 0 0 1 0 0 1 0 0 1 0 0 1 0 0 1 0 0 1 0 0 1 0 0 1 0 0 1 0 0 1 0 0.3333333333333334 0.3333333333333334 0.3333333333333334 0 1 0 0 1 0 0 1 0 0 1 0 0.03270694 0.10527342 0.86201964 0.054187192 0.009852217 0.935960591 0.7272727 0.2727273 0 0.96610169 0.03389831 0 0.00572363000572363 0.9918233859918234 0.002452984002452984 0.2515910515 0.678957138 0.0694518105 0 0.4444444 0.5555556 0.3076923 0.3076923 0.3846154 0.05 0 0.95 0 0 1 0.0319148903191489 0.0319148903191489 0.9361702193617022 0 0.01428571 0.98571429 1 0 0 0.1428571 0 0.8571429 1 0 0 1 0 0 0 1 0 0 1 0 0 1 0 0 1 0 0 1 0 0 1 0 0.3333333333333334 0.3333333333333334 0.3333333333333334 0.3333333333333334 0.3333333333333334 0.3333333333333334 0.3333333333333334 0.3333333333333334 0.3333333333333334 0 1 0 0 1 0 0.3333333333333334 0.3333333333333334 0.3333333333333334 0 1 0 0.3333333333333334 0.3333333333333334 0.3333333333333334 0 1 0 0 1 0 0 1 0 0 1 0 0.3333333333333334 0.3333333333333334 0.3333333333333334 0.3333333333333334 0.3333333333333334 0.3333333333333334 0 1 0 0 1 0 0 1 0 0.3333333333333334 0.3333333333333334 0.3333333333333334 0 1 0 0 1 0 0 1 0 0.3333333333333334 0.3333333333333334 0.3333333333333334 0 1 0 0 1 0 0 1 0 0 1 0 0 1 0 0 1 0 0.3333333333333334 0.3333333333333334 0.3333333333333334 0.3333333333333334 0.3333333333333334 0.3333333333333334 0.3333333333333334 0.3333333333333334 0.3333333333333334 0 1 0 0.3333333333333334 0.3333333333333334 0.3333333333333334 0.3333333333333334 0.3333333333333334 0.3333333333333334 0 1 0 0.3333333333333334 0.3333333333333334 0.3333333333333334 0.3333333333333334 0.3333333333333334 0.3333333333333334 0.3333333333333334 0.3333333333333334 0.3333333333333334 0.3333333333333334 0.3333333333333334 0.3333333333333334 0 1 0 0.3333333333333334 0.3333333333333334 0.3333333333333334 0.3333333333333334 0.3333333333333334 0.3333333333333334 0 1 0 0 1 0 0.3333333333333334 0.3333333333333334 0.3333333333333334 0.3333333333333334 0.3333333333333334 0.3333333333333334 0.3333333333333334 0.3333333333333334 0.3333333333333334 0 1 0 0.3333333333333334 0.3333333333333334 0.3333333333333334 0.3333333333333334 0.3333333333333334 0.3333333333333334 0.3333333333333334 0.3333333333333334 0.3333333333333334 0.3333333333333334 0.3333333333333334 0.3333333333333334 0.3333333333333334 0.3333333333333334 0.3333333333333334 0.3333333333333334 0.3333333333333334 0.3333333333333334 0 1 0 0.3333333333333334 0.3333333333333334 0.3333333333333334 0 1 0 0 1 0 0 1 0 0 1 0 0.3333333333333334 0.3333333333333334 0.3333333333333334 0.3333333333333334 0.3333333333333334 0.3333333333333334 0.3333333333333334 0.3333333333333334 0.3333333333333334 0.3333333333333334 0.3333333333333334 0.3333333333333334 0.3333333333333334 0.3333333333333334 0.3333333333333334 0.3333333333333334 0.3333333333333334 0.3333333333333334 0.3333333333333334 0.3333333333333334 0.3333333333333334 0.3333333333333334 0.3333333333333334 0.3333333333333334 0.3333333333333334 0.3333333333333334 0.3333333333333334 0.3333333333333334 0.3333333333333334 0.3333333333333334 0 1 0 0.3333333333333334 0.3333333333333334 0.3333333333333334 0.3333333333333334 0.3333333333333334 0.3333333333333334 0.3333333333333334 0.3333333333333334 0.3333333333333334 0 1 0 0 1 0 0.3333333333333334 0.3333333333333334 0.3333333333333334 0.3333333333333334 0.3333333333333334 0.3333333333333334 0.3333333333333334 0.3333333333333334 0.3333333333333334 0 1 0 0.3333333333333334 0.3333333333333334 0.3333333333333334 0.3333333333333334 0.3333333333333334 0.3333333333333334 0.3333333333333334 0.3333333333333334 0.3333333333333334 0.3333333333333334 0.3333333333333334 0.3333333333333334 0.3333333333333334 0.3333333333333334 0.3333333333333334 0.3333333333333334 0.3333333333333334 0.3333333333333334 0.3333333333333334 0.3333333333333334 0.3333333333333334 0.3333333333333334 0.3333333333333334 0.3333333333333334 0.3333333333333334 0.3333333333333334 0.3333333333333334 0.3333333333333334 0.3333333333333334 0.3333333333333334 8.304827067669174e-005 0.998864950300752 0.001052001428571429 0.0007221955 0.8456909003333334 0.1535869041666667 0.0112854380952381 0.9887145619047618 0 0.03161151428571429 0.9683884857142857 0 2.70002e-005 0.9999475878533334 2.541194666666667e-005 4.711594594594596e-005 0.9985801390390392 0.001372745015015015 0.0004339336363636364 0.9982208721818182 0.001345194181818182 0.001189414210526316 0.9943502823684211 0.004460303421052632 0.01882845 0 0.98117155 0.0007984031666666666 0.924750499 0.07445109783333333 0.0006155740000000001 0.9300554016666668 0.06932902433333334 0.002638522335971856 0.6693051890026386 0.3280562886613897 0.3333333 0.6666667 0 0 0.72727275 0.27272725 0.02503293636363636 0.9749670636363637 0 0.01114827166666667 0.9888517283333332 0 0.3333333333333334 0.3333333333333334 0.3333333333333334 0.3333333333333334 0.3333333333333334 0.3333333333333334 0.3333333333333334 0.3333333333333334 0.3333333333333334 0.3333333333333334 0.3333333333333334 0.3333333333333334 0.3333333333333334 0.3333333333333334 0.3333333333333334 0.3333333333333334 0.3333333333333334 0.3333333333333334 0.3333333333333334 0.3333333333333334 0.3333333333333334 0.3333333333333334 0.3333333333333334 0.3333333333333334 0.3333333333333334 0.3333333333333334 0.3333333333333334 0.3333333333333334 0.3333333333333334 0.3333333333333334 0.3333333333333334 0.3333333333333334 0.3333333333333334 0.3333333333333334 0.3333333333333334 0.3333333333333334 0.3333333333333334 0.3333333333333334 0.3333333333333334 0.3333333333333334 0.3333333333333334 0.3333333333333334 0.3333333333333334 0.3333333333333334 0.3333333333333334 0.3333333333333334 0.3333333333333334 0.3333333333333334 0 1 0 0 1 0 0 1 0 0 1 0 0 1 0 0 1 0 0 1 0 0 1 0 0 1 0 0 1 0 0 1 0 0 1 0 0 1 0 0 1 0 0 1 0 0 1 0 0 1 0 0 1 0 0 1 0 0 1 0 0 1 0 0 1 0 0 1 0 0 1 0 0 1 0 0 1 0 0 1 0 0 1 0 0 1 0 0 1 0 0 1 0 0 1 0 0 1 0 0 1 0 0.3333333333333334 0.3333333333333334 0.3333333333333334 0.3333333333333334 0.3333333333333334 0.3333333333333334 0 1 0 0 1 0 0.3333333333333334 0.3333333333333334 0.3333333333333334 0.3333333333333334 0.3333333333333334 0.3333333333333334 0 1 0 0 1 0 0.3333333333333334 0.3333333333333334 0.3333333333333334 0.3333333333333334 0.3333333333333334 0.3333333333333334 0 1 0 0 1 0 0 1 0 0 1 0 0 1 0 0 1 0 0.3333333333333334 0.3333333333333334 0.3333333333333334 0.3333333333333334 0.3333333333333334 0.3333333333333334 0.3333333333333334 0.3333333333333334 0.3333333333333334 0 1 0 0.3333333333333334 0.3333333333333334 0.3333333333333334 0.3333333333333334 0.3333333333333334 0.3333333333333334 0.3333333333333334 0.3333333333333334 0.3333333333333334 0.3333333333333334 0.3333333333333334 0.3333333333333334 0.3333333333333334 0.3333333333333334 0.3333333333333334 0.3333333333333334 0.3333333333333334 0.3333333333333334 0.3333333333333334 0.3333333333333334 0.3333333333333334 0.3333333333333334 0.3333333333333334 0.3333333333333334 0.3333333333333334 0.3333333333333334 0.3333333333333334 0.3333333333333334 0.3333333333333334 0.3333333333333334 0 1 0 0 1 0 0.3333333333333334 0.3333333333333334 0.3333333333333334 0.3333333333333334 0.3333333333333334 0.3333333333333334 0.3333333333333334 0.3333333333333334 0.3333333333333334 0 1 0 0.3333333333333334 0.3333333333333334 0.3333333333333334 0.3333333333333334 0.3333333333333334 0.3333333333333334 0.3333333333333334 0.3333333333333334 0.3333333333333334 0.3333333333333334 0.3333333333333334 0.3333333333333334 0.3333333333333334 0.3333333333333334 0.3333333333333334 0.3333333333333334 0.3333333333333334 0.3333333333333334 0 1 0 0.3333333333333334 0.3333333333333334 0.3333333333333334 0.3333333333333334 0.3333333333333334 0.3333333333333334 0.3333333333333334 0.3333333333333334 0.3333333333333334 1.837875734055449e-005 0.9999684997656589 1.312147700056918e-005 0.02393617 0.781914895 0.194148935 0.1333333333333333 0.8666666666666667 0 0.6404494 0.3595506 0 0.0004205129219579045 0.8889182119186159 0.1106612751594264 0.000226215518744734 0.9984882842207106 0.00128550026054476 0.007142856666666667 0.9928571433333334 0 0.047468355 0.952531645 0 0.1071428892857111 0.3809523619047638 0.5119047488095252 0.0877193 0.05263158 0.85964912 0.01904762 0.604761905 0.376190475 0.02884615028846151 0.2115384621153847 0.7596153875961539 0.1842105 0.8157895 0 0.3333333333333334 0.3333333333333334 0.3333333333333334 0.875 0.125 0 0.3823529 0.6176471 0</probabilities>
		</cpt>
		<cpt id="service" dynamic="plate">
			<state id="auth" />
			<state id="domain_u" />
			<state id="http" />
			<state id="other" />
			<state id="smtp" />
			<parents>duration protocoltype flag dsthostsamesrvrate</parents>
			<probabilities>0.2 0.2 0.2 0.2 0.2 0.2 0.2 0.2 0.2 0.2 0.2 0.2 0.2 0.2 0.2 0.2 0.2 0.2 0.2 0.2 0.2 0.2 0.2 0.2 0.2 0.2 0.2 0.2 0.2 0.2 0.2 0.2 0.2 0.2 0.2 0.2 0.2 0.2 0.2 0.2 0.2 0.2 0.2 0.2 0.2 0.2 0.2 0.2 0.2 0.2 0.2 0.2 0.2 0.2 0.2 0.2 0.2 0.2 0.2 0.2 0.2 0.2 0.2 0.2 0.2 0.2 0.2 0.2 0.2 0.2 0.2 0.2 0.2 0.2 0.2 0.2 0.2 0.2 0.2 0.2 0.2 0.2 0.2 0.2 0.2 0.2 0.2 0.2 0.2 0.2 0.2 0.2 0.2 0.2 0.2 0.2 0.2 0.2 0.2 0.2 0.2 0.2 0.2 0.2 0.2 0.2 0.2 0.2 0.2 0.2 0.2 0.2 0.2 0.2 0.2 0.2 0.2 0.2 0.2 0.2 0 0 0 1 0 0.1490510354048817 0.008866719744132022 0.1646407834010643 0.6747853841301863 0.00265607731973567 0 0 0 1 0 0 0 0 1 0 0.2 0.2 0.2 0.2 0.2 0.2 0.2 0.2 0.2 0.2 0.2 0.2 0.2 0.2 0.2 0.2 0.2 0.2 0.2 0.2 0 0 0.880597 0.119403 0 0 0 0.6116102 0.3883898 0 0 0 0.36 0.64 0 0 0 0.6 0.4 0 0 0 0.993250369 0.006749631 0 0 0 0.91014975 0.07432058 0.01552967 0 0 0.995670996 0.004329004 0 0 0 0.994071146 0.005928854 0 0 0 0.4 0.6 0 0 0 0.1333333 0.8666667 0 0.2 0.2 0.2 0.2 0.2 0.2 0.2 0.2 0.2 0.2 0 0 0.5384615 0.4615385 0 0 0 0.6470588000000001 0.3529412 0 0.2 0.2 0.2 0.2 0.2 0.2 0.2 0.2 0.2 0.2 0 0 0.9775577600000001 0.02244224 0 0 0 0.9656477100000001 0.03435229 0 0 0 0.5666667 0.4333333 0 0 0 0.6470588000000001 0.3529412 0 0 0 0.96221751 0.03778249 0 0 0 0.306126114 0.3604283116666667 0.3334455743333333 0 0 0.4285714 0.5714286 0 0 0 0.7142857 0.2857143 0 0.2 0.2 0.2 0.2 0.2 0.2 0.2 0.2 0.2 0.2 0.2 0.2 0.2 0.2 0.2 0.2 0.2 0.2 0.2 0.2 0.2 0.2 0.2 0.2 0.2 0.2 0.2 0.2 0.2 0.2 0.2 0.2 0.2 0.2 0.2 0.2 0.2 0.2 0.2 0.2 0.2 0.2 0.2 0.2 0.2 0.2 0.2 0.2 0.2 0.2 0.2 0.2 0.2 0.2 0.2 0.2 0.2 0.2 0.2 0.2 0.2 0.2 0.2 0.2 0.2 0.2 0.2 0.2 0.2 0.2 0.2 0.2 0.2 0.2 0.2 0.2 0.2 0.2 0.2 0.2 0.2 0.2 0.2 0.2 0.2 0.2 0.2 0.2 0.2 0.2 0.2 0.2 0.2 0.2 0.2 0.2 0.2 0.2 0.2 0.2 0.2 0.2 0.2 0.2 0.2 0.2 0.2 0.2 0.2 0.2 0.2 0.2 0.2 0.2 0.2 0.2 0.2 0.2 0.2 0.2 0 0.998721612 0 0.001278388 0 0 0.02089899 0 0.9791010100000001 0 0 1 0 0 0 0 1 0 0 0 0.2 0.2 0.2 0.2 0.2 0.2 0.2 0.2 0.2 0.2 0.2 0.2 0.2 0.2 0.2 0.2 0.2 0.2 0.2 0.2 0.2 0.2 0.2 0.2 0.2 0.2 0.2 0.2 0.2 0.2 0.2 0.2 0.2 0.2 0.2 0.2 0.2 0.2 0.2 0.2 0.2 0.2 0.2 0.2 0.2 0.2 0.2 0.2 0.2 0.2 0.2 0.2 0.2 0.2 0.2 0.2 0.2 0.2 0.2 0.2 0.2 0.2 0.2 0.2 0.2 0.2 0.2 0.2 0.2 0.2 0.2 0.2 0.2 0.2 0.2 0.2 0.2 0.2 0.2 0.2 0.2 0.2 0.2 0.2 0.2 0.2 0.2 0.2 0.2 0.2 0.2 0.2 0.2 0.2 0.2 0.2 0.2 0.2 0.2 0.2 0.2 0.2 0.2 0.2 0.2 0.2 0.2 0.2 0.2 0.2 0.2 0.2 0.2 0.2 0.2 0.2 0.2 0.2 0.2 0.2 0 0 0 1 0 0 0 0 1 0 0 0 0 1 0 0 0 0 1 0 0 0 0.9845212383000001 0.01531262115 0.00016614055 0 0 0.7323420077323419 0.2639405202639406 0.003717472003717472 0 0 0.3333333 0.5555556 0.1111111 0 0 0.6666667 0.3333333 0 0 0 0.440367 0.5596330000000001 0 0 0 0.218551461 0.778907243 0.002541296 0 0 0.2608696 0.7391304 0 0 0 1 0 0 0 0 0.4140845 0.5859155 0 0.005 0 0.0591666667 0.9350000000000001 0.0008333333 0.2 0.2 0.2 0.2 0.2 0.2 0.2 0.2 0.2 0.2 0 0 0.96875 0.03125 0 0 0 0.875 0.125 0 0 0 1 0 0 0 0 1 0 0 0 0 0.5 0.5 0 0 0 1 0 0 0.2 0.2 0.2 0.2 0.2 0.2 0.2 0.2 0.2 0.2 0 0 1 0 0 0 0 1 0 0 0.2 0.2 0.2 0.2 0.2 0.2 0.2 0.2 0.2 0.2 0.002407587869985268 0.002461753717837668 0.8396617210321572 0.1540450812976388 0.001423856082381195 0.01243566125777308 0.004436957251645462 0.5088224811779325 0.3002859848764041 0.1740189154362449 0.02466292678301185 0.03711381450990422 0.2376097972501788 0.6260260857450394 0.07458737571186583 0.007321898355538785 0.05536133684719479 0.2036360209130824 0.6550580086367632 0.07862273524742104 0.2 0.2 0.2 0.2 0.2 0.2 0.2 0.2 0.2 0.2 0.2 0.2 0.2 0.2 0.2 0.2 0.2 0.2 0.2 0.2 0.2 0.2 0.2 0.2 0.2 0.2 0.2 0.2 0.2 0.2 0.2 0.2 0.2 0.2 0.2 0.2 0.2 0.2 0.2 0.2 0.2 0.2 0.2 0.2 0.2 0.2 0.2 0.2 0.2 0.2 0.2 0.2 0.2 0.2 0.2 0.2 0.2 0.2 0.2 0.2 0.2 0.2 0.2 0.2 0.2 0.2 0.2 0.2 0.2 0.2 0.2 0.2 0.2 0.2 0.2 0.2 0.2 0.2 0.2 0.2 0.2 0.2 0.2 0.2 0.2 0.2 0.2 0.2 0.2 0.2 0.2 0.2 0.2 0.2 0.2 0.2 0.2 0.2 0.2 0.2 0.2 0.2 0.2 0.2 0.2 0.2 0.2 0.2 0.2 0.2 0.2 0.2 0.2 0.2 0.2 0.2 0.2 0.2 0.2 0.2 0 0.9993744135 0 0.0006255865 0 0 0.1948948 0 0.8051052 0 0 0.998927039 0 0.001072961 0 0 1 0 0 0 0.2 0.2 0.2 0.2 0.2 0.2 0.2 0.2 0.2 0.2 0.2 0.2 0.2 0.2 0.2 0.2 0.2 0.2 0.2 0.2 0.2 0.2 0.2 0.2 0.2 0.2 0.2 0.2 0.2 0.2 0.2 0.2 0.2 0.2 0.2 0.2 0.2 0.2 0.2 0.2 0.2 0.2 0.2 0.2 0.2 0.2 0.2 0.2 0.2 0.2 0.2 0.2 0.2 0.2 0.2 0.2 0.2 0.2 0.2 0.2 0.2 0.2 0.2 0.2 0.2 0.2 0.2 0.2 0.2 0.2 0.2 0.2 0.2 0.2 0.2 0.2 0.2 0.2 0.2 0.2 0.2 0.2 0.2 0.2 0.2 0.2 0.2 0.2 0.2 0.2 0.2 0.2 0.2 0.2 0.2 0.2 0.2 0.2 0.2 0.2 0.2 0.2 0.2 0.2 0.2 0.2 0.2 0.2 0.2 0.2 0.2 0.2 0.2 0.2 0.2 0.2 0.2 0.2 0.2 0.2 0 0 0 1 0 0 0 0 1 0 0 0 0 1 0 0 0 0 1 0 0.2 0.2 0.2 0.2 0.2 0.2 0.2 0.2 0.2 0.2 0.2 0.2 0.2 0.2 0.2 0.2 0.2 0.2 0.2 0.2 0 0 0.4787645 0.5212355 0 0 0 0.33488064 0.66246684 0.00265252 0 0 0.07894737 0.92105263 0 0 0 0.2 0.8 0 0 0 0.97739728 0.02260272 0 0.0002882675 0 0.7703228596 0.228740271 0.0006486019 0 0 0.93207127 0.06792873000000001 0 0 0 0.97752809 0.02247191 0 0 0 0.1324864 0.8675136 0 0 0 0.03092784 0.96907216 0 0 0 1 0 0 0 0 1 0 0 0 0 0.9655172400000001 0.03448276 0 0 0 0.8644068 0.1355932 0 0.2 0.2 0.2 0.2 0.2 0.2 0.2 0.2 0.2 0.2 0 0 0.9787234 0.0212766 0 0 0 0.91472868 0.08527132 0 0.2 0.2 0.2 0.2 0.2 0.2 0.2 0.2 0.2 0.2 1.162589809542469e-005 0.009448013768940822 0.9846956148495458 0.005771723904338632 7.302157907936771e-005 0.003504040869821491 0.1264643085554121 0.5232988798800944 0.294612980131454 0.0521197905632181 0.008965906535035303 0.2982534853251077 0.4638827358141427 0.2258237787225624 0.003074093603151759 0.0004770507121870234 0.1847475170797522 0.569598790913193 0.2264464972815219 0.01873014401334594 0.2 0.2 0.2 0.2 0.2 0.2 0.2 0.2 0.2 0.2 0.2 0.2 0.2 0.2 0.2 0.2 0.2 0.2 0.2 0.2 0.2 0.2 0.2 0.2 0.2 0.2 0.2 0.2 0.2 0.2 0.2 0.2 0.2 0.2 0.2 0.2 0.2 0.2 0.2 0.2 0.2 0.2 0.2 0.2 0.2 0.2 0.2 0.2 0.2 0.2 0.2 0.2 0.2 0.2 0.2 0.2 0.2 0.2 0.2 0.2 0.2 0.2 0.2 0.2 0.2 0.2 0.2 0.2 0.2 0.2 0.2 0.2 0.2 0.2 0.2 0.2 0.2 0.2 0.2 0.2 0.2 0.2 0.2 0.2 0.2 0.2 0.2 0.2 0.2 0.2 0.2 0.2 0.2 0.2 0.2 0.2 0.2 0.2 0.2 0.2 0.2 0.2 0.2 0.2 0.2 0.2 0.2 0.2 0.2 0.2 0.2 0.2 0.2 0.2 0.2 0.2 0.2 0.2 0.2 0.2 0 1 0 0 0 0 0.0494403 0 0.9505597 0 0 1 0 0 0 0 1 0 0 0</probabilities>
		</cpt>
		<cpt id="dsthostsamesrcportrate" dynamic="plate">
			<state id="high" />
			<state id="low" />
			<state id="lowmid" />
			<state id="mid" />
			<parents>protocoltype service flag</parents>
			<probabilities>0.25 0.25 0.25 0.25 0.25 0.25 0.25 0.25 0.25 0.25 0.25 0.25 0.25 0.25 0.25 0.25 0.25 0.25 0.25 0.25 0.25 0.25 0.25 0.25 0.1925888615554312 0.1925888615554312 0.4222334153337065 0.1925888615554312 0.25 0.25 0.25 0.25 0.25 0.25 0.25 0.25 0.25 0.25 0.25 0.25 0.25 0.25 0.25 0.25 0.25 0.25 0.25 0.25 0.25 0.25 0.25 0.25 0.2456438889594753 0.2456438889594753 0.2630683331215741 0.2456438889594753 0.25 0.25 0.25 0.25 0.25 0.25 0.25 0.25 0.25 0.25 0.25 0.25 0.25 0.25 0.25 0.25 0.25 0.25 0.25 0.25 0.25 0.25 0.25 0.25 0.1880715164067373 0.1880715164067373 0.435785450779788 0.1880715164067373 0.25 0.25 0.25 0.25 0.25 0.25 0.25 0.25 0.25 0.25 0.25 0.25 0.25 0.25 0.25 0.25 0.25 0.25 0.25 0.25 0.25 0.25 0.25 0.25 0.6563475371816183 0.0294113513225874 0.2800859926357311 0.03415511886006332 0.25 0.25 0.25 0.25 0.25 0.25 0.25 0.25 0.25 0.25 0.25 0.25 0.25 0.25 0.25 0.25 0.25 0.25 0.25 0.25 0.25 0.25 0.25 0.25 0.2486789788089809 0.2486789788089809 0.2539630635730573 0.2486789788089809 0.25 0.25 0.25 0.25 0.25 0.25 0.25 0.25 0 1 0 0 0.25 0.25 0.25 0.25 0.25 0.25 0.25 0.25 0.25 0.25 0.25 0.25 0 1 0 0 0.25 0.25 0.25 0.25 0.25 0.25 0.25 0.25 0.25 0.25 0.25 0.25 0.25 0.25 0.25 0.25 0.25 0.25 0.25 0.25 0.25 0.25 0.25 0.25 0.0130532164677827 0.9608403505966519 0.0130532164677827 0.0130532164677827 0.02802260000000001 0.3740113000000001 0.5692655350000001 0.028700565 0 1 0 0 0 0.0004727663846439265 0.9995272336153561 0 0 0.997093023 0.002906977 0 0 1 0 0 0 1 0 0 0 1 0 0 0 0.83968254 0.152380952 0.007936508 0 1 0 0 0 1 0 0 0 1 0 0 0 1 0 0 0 1 0 0 0 1 0 0 0 0.5 0.5 0 0 1 0 0 0 1 0 0 0.25 0.25 0.25 0.25 0.25 0.25 0.25 0.25 0.25 0.25 0.25 0.25 0 1 0 0 0.25 0.25 0.25 0.25 0.25 0.25 0.25 0.25 0.25 0.25 0.25 0.25 0.25 0.25 0.25 0.25 0.25 0.25 0.25 0.25 0.25 0.25 0.25 0.25 0.25 0.25 0.25 0.25 0.25 0.25 0.25 0.25 0.25 0.25 0.25 0.25 0.25 0.25 0.25 0.25 0.25 0.25 0.25 0.25 0.25 0.25 0.25 0.25 0.25 0.25 0.25 0.25 0 1 0 0 0.25 0.25 0.25 0.25 0.25 0.25 0.25 0.25 0.25 0.25 0.25 0.25 0.25 0.25 0.25 0.25 0.25 0.25 0.25 0.25 0.25 0.25 0.25 0.25 0.25 0.25 0.25 0.25 0.25 0.25 0.25 0.25 0.25 0.25 0.25 0.25 0.25 0.25 0.25 0.25 0.25 0.25 0.25 0.25 0.25 0.25 0.25 0.25 0.25 0.25 0.25 0.25 0.6934808300000001 0.05257223 0.0716894 0.18225754 0.25 0.25 0.25 0.25 0.25 0.25 0.25 0.25 0.25 0.25 0.25 0.25 0.25 0.25 0.25 0.25 0.25 0.25 0.25 0.25 0.25 0.25 0.25 0.25 0.25 0.25 0.25 0.25</probabilities>
		</cpt>
		<cpt id="srvcount" dynamic="plate">
			<state id="high" />
			<state id="low" />
			<state id="mid" />
			<parents>protocoltype flag dsthostsamesrcportrate</parents>
			<probabilities>0.3333333333333334 0.3333333333333334 0.3333333333333334 0.3333333333333334 0.3333333333333334 0.3333333333333334 0.3333333333333334 0.3333333333333334 0.3333333333333334 0.3333333333333334 0.3333333333333334 0.3333333333333334 0.3333333333333334 0.3333333333333334 0.3333333333333334 0.3333333333333334 0.3333333333333334 0.3333333333333334 0.3333333333333334 0.3333333333333334 0.3333333333333334 0.3333333333333334 0.3333333333333334 0.3333333333333334 0.3333333333333334 0.3333333333333334 0.3333333333333334 0.3333333333333334 0.3333333333333334 0.3333333333333334 0.3333333333333334 0.3333333333333334 0.3333333333333334 0.3333333333333334 0.3333333333333334 0.3333333333333334 0.3333333333333334 0.3333333333333334 0.3333333333333334 0.3333333333333334 0.3333333333333334 0.3333333333333334 0.3333333333333334 0.3333333333333334 0.3333333333333334 0.3333333333333334 0.3333333333333334 0.3333333333333334 0.3333333333333334 0.3333333333333334 0.3333333333333334 0.3333333333333334 0.3333333333333334 0.3333333333333334 0.3333333333333334 0.3333333333333334 0.3333333333333334 0.3333333333333334 0.3333333333333334 0.3333333333333334 0.3333333333333334 0.3333333333333334 0.3333333333333334 0.3333333333333334 0.3333333333333334 0.3333333333333334 0.3333333333333334 0.3333333333333334 0.3333333333333334 0.3333333333333334 0.3333333333333334 0.3333333333333334 0 0.7577334 0.2422666 0 1 0 0 1 0 0 1 0 0 0.90927419 0.09072581 0.0008712699 0.8630654178 0.1360633123 0.009208465000000001 0.72492163 0.265869905 0.003917728 0.743388834 0.252693438 0.3333333333333334 0.3333333333333334 0.3333333333333334 0.8243692 0.0747012 0.1009296 0.3333333333333334 0.3333333333333334 0.3333333333333334 0.3333333333333334 0.3333333333333334 0.3333333333333334 0.3333333333333334 0.3333333333333334 0.3333333333333334 0.992642597 0.002635771 0.004721632 1 0 0 0.3333333333333334 0.3333333333333334 0.3333333333333334 0.3333333333333334 0.3333333333333334 0.3333333333333334 0.998028132 0.0010516629 0.0009202051 1 0 0 0.3333333333333334 0.3333333333333334 0.3333333333333334 0.3333333333333334 0.3333333333333334 0.3333333333333334 1 0 0 0.3333333333333334 0.3333333333333334 0.3333333333333334 0.3333333333333334 0.3333333333333334 0.3333333333333334 0.3333333333333334 0.3333333333333334 0.3333333333333334 0.9811942850000001 0.004029796 0.014775919 0.3333333333333334 0.3333333333333334 0.3333333333333334 0.3333333333333334 0.3333333333333334 0.3333333333333334 0.3333333333333334 0.3333333333333334 0.3333333333333334 0.0009989711118093419 0.9989991154740244 1.913414166231401e-006 0.3333333333333334 0.3333333333333334 0.3333333333333334 0.3333333333333334 0.3333333333333334 0.3333333333333334 0.3333333333333334 0.3333333333333334 0.3333333333333334 0.3333333333333334 0.3333333333333334 0.3333333333333334 0.3333333333333334 0.3333333333333334 0.3333333333333334 0.3333333333333334 0.3333333333333334 0.3333333333333334 0.3333333333333334 0.3333333333333334 0.3333333333333334 0.3333333333333334 0.3333333333333334 0.3333333333333334 0.3333333333333334 0.3333333333333334 0.3333333333333334 0.3333333333333334 0.3333333333333334 0.3333333333333334 0.3333333333333334 0.3333333333333334 0.3333333333333334 0.3333333333333334 0.3333333333333334 0.3333333333333334 0.3333333333333334 0.3333333333333334 0.3333333333333334 0.3333333333333334 0.3333333333333334 0.3333333333333334 0.3333333333333334 0.3333333333333334 0.3333333333333334 0.3333333333333334 0.3333333333333334 0.3333333333333334 0.3333333333333334 0.3333333333333334 0.3333333333333334 0.3333333333333334 0.3333333333333334 0.3333333333333334 0.3333333333333334 0.3333333333333334 0.3333333333333334 0.3333333333333334 0.3333333333333334 0.3333333333333334 0.3333333333333334 0.3333333333333334 0.3333333333333334 0.3333333333333334 0.3333333333333334 0.3333333333333334 0.3333333333333334 0.3333333333333334 0.3333333333333334 0.3333333333333334 0.3333333333333334 0.3333333333333334 0.3333333333333334 0.3333333333333334 0.3333333333333334 0.3333333333333334 0.3333333333333334 0.3333333333333334 0.9368902 0.01014403 0.05296577 0.9900584649900586 0.002652793002652793 0.007288742007288743 0.97752809 0.013483146 0.008988764 0.984973483 0.010017678 0.005008839</probabilities>
		</cpt>
		<cpt id="count" dynamic="plate">
			<state id="high" />
			<state id="low" />
			<state id="mid" />
			<parents>service srvcount samesrvrate dsthostsamesrvrate</parents>
			<probabilities>0.3333333333333334 0.3333333333333334 0.3333333333333334 0.3333333333333334 0.3333333333333334 0.3333333333333334 0.3333333333333334 0.3333333333333334 0.3333333333333334 0.3333333333333334 0.3333333333333334 0.3333333333333334 0.3333333333333334 0.3333333333333334 0.3333333333333334 0.3333333333333334 0.3333333333333334 0.3333333333333334 0.3333333333333334 0.3333333333333334 0.3333333333333334 0.3333333333333334 0.3333333333333334 0.3333333333333334 0.3333333333333334 0.3333333333333334 0.3333333333333334 0.3333333333333334 0.3333333333333334 0.3333333333333334 0.3333333333333334 0.3333333333333334 0.3333333333333334 0.3333333333333334 0.3333333333333334 0.3333333333333334 0.3333333333333334 0.3333333333333334 0.3333333333333334 0.3333333333333334 0.3333333333333334 0.3333333333333334 0.3333333333333334 0.3333333333333334 0.3333333333333334 0.3333333333333334 0.3333333333333334 0.3333333333333334 0.281567732354665 0.43686453529067 0.281567732354665 0.3326177554585601 0.3347644890828797 0.3326177554585601 0.289066094193998 0.4218678116120041 0.289066094193998 0.3205161770427254 0.3589676459145493 0.3205161770427254 0.2530246865745069 0.4939506268509863 0.2530246865745069 0 1 0 0.1030692314180052 0.7938615371639896 0.1030692314180052 0.2350664908315226 0.5298670183369546 0.2350664908315226 0.3333333333333334 0.3333333333333334 0.3333333333333334 0 1 0 0.3208404791865049 0.3583190416269901 0.3208404791865049 0.3271662852453238 0.3456674295093524 0.3271662852453238 0.3333333333333334 0.3333333333333334 0.3333333333333334 0 1 0 0.3260987535946174 0.3478024928107653 0.3260987535946174 0.3333333333333334 0.3333333333333334 0.3333333333333334 0.3333333333333334 0.3333333333333334 0.3333333333333334 0.3333333333333334 0.3333333333333334 0.3333333333333334 0.3333333333333334 0.3333333333333334 0.3333333333333334 0.3333333333333334 0.3333333333333334 0.3333333333333334 0.3333333333333334 0.3333333333333334 0.3333333333333334 0.3333333333333334 0.3333333333333334 0.3333333333333334 0.3333333333333334 0.3333333333333334 0.3333333333333334 0.3333333333333334 0.3333333333333334 0.3333333333333334 0.3333333333333334 0.3333333333333334 0.3333333333333334 0.3333333333333334 0.3333333333333334 0.3333333333333334 0.3333333333333334 0.3333333333333334 0.3333333333333334 0.3333333333333334 0.3333333333333334 0.3333333333333334 0.3333333333333334 0.3333333333333334 0.3333333333333334 0.3333333333333334 0.3333333333333334 0.3333333333333334 0.3333333333333334 0.3333333333333334 0.3333333333333334 0.3333333333333334 0.3333333333333334 0.3333333333333334 0.9044950899999998 0.07650410000000001 0.01900081 0.02954809 0.92641947 0.04403244 0.3333333333333334 0.3333333333333334 0.3333333333333334 0.3333333333333334 0.3333333333333334 0.3333333333333334 0 0 1 0 0.9300000000000001 0.07000000000000001 0.03030303 0.09090909 0.87878788 0 0.1428571 0.8571429 1 0 0 1 0 0 1 0 0 1 0 0 0.3333333333333334 0.3333333333333334 0.3333333333333334 0.3333333333333334 0.3333333333333334 0.3333333333333334 0.3333333333333334 0.3333333333333334 0.3333333333333334 0.3333333333333334 0.3333333333333334 0.3333333333333334 0 1 0 0.2732048057622103 0.4535903884755794 0.2732048057622103 0.1289595798847954 0.7420808402304092 0.1289595798847954 0.1988410286132593 0.6023179427734812 0.1988410286132593 0.2337465181542041 0.5325069636915917 0.2337465181542041 0 0.952648749617387 0.04735125038261299 0.06471303381089093 0.8705739323782182 0.06471303381089093 0.07848799530438898 0.8430240093912221 0.07848799530438898 0.3333333333333334 0.3333333333333334 0.3333333333333334 0.3251211900132008 0.3497576199735983 0.3251211900132008 0.3002853174509347 0.3994293650981306 0.3002853174509347 0.3190809734094528 0.3618380531810943 0.3190809734094528 0.3333333333333334 0.3333333333333334 0.3333333333333334 0.3333333333333334 0.3333333333333334 0.3333333333333334 0.2378544800965017 0.5242910398069967 0.2378544800965017 0.3333333333333334 0.3333333333333334 0.3333333333333334 0 0.05381166 0.94618834 0 0 1 0.3333333333333334 0.3333333333333334 0.3333333333333334 0.3333333333333334 0.3333333333333334 0.3333333333333334 0.3333333333333334 0.3333333333333334 0.3333333333333334 0 0.07692308000000001 0.92307692 0 0 1 0.3333333333333334 0.3333333333333334 0.3333333333333334 0.3333333333333334 0.3333333333333334 0.3333333333333334 0.3333333333333334 0.3333333333333334 0.3333333333333334 0.3333333333333334 0.3333333333333334 0.3333333333333334 0.3333333333333334 0.3333333333333334 0.3333333333333334 0.3333333333333334 0.3333333333333334 0.3333333333333334 0.3333333333333334 0.3333333333333334 0.3333333333333334 0.3333333333333334 0.3333333333333334 0.3333333333333334 0.3333333333333334 0.3333333333333334 0.3333333333333334 0.3668116 0.3367161 0.2964723 0.09450633999999999 0.71552055 0.18997311 0.2777778 0.2638889 0.4583333 0.2857143 0.1746032 0.5396825000000001 0.6210526 0.1157895 0.2631579 0.05160706 0.91353554 0.0348574 0.5625 0 0.4375 0.7142857 0 0.2857143 0.97885835 0.00845666 0.01268499 0.5629371 0.3356643 0.1013986 0.9552238800447762 0.03731343296268657 0.007462686992537314 1 0 0 0.9627791563 0.0366004963 0.0006203474 0.6569873000000001 0.3430127 0 0.98288973 0.01711027 0 0.994492526 0.005507474 0 0 1 0 0 1 0 0 1 0 0 1 0 0 1 0 0 0.9999984540907921 1.545909207953433e-006 0 0.9997750218714393 0.0002249781285606151 0 1 0 0 1 0 0 1 0 0 1 0 0 1 0 0 1 0 0.3333333333333334 0.3333333333333334 0.3333333333333334 0.3027574570034417 0.3944850859931168 0.3027574570034417 0 1 0 0 0.1084779 0.8915221 0 1 0 0.3333333333333334 0.3333333333333334 0.3333333333333334 0.3333333333333334 0.3333333333333334 0.3333333333333334 0 0 1 0 0.944 0.056 0 0 1 0 0 1 0.3333333333333334 0.3333333333333334 0.3333333333333334 0 1 0 0.3333333333333334 0.3333333333333334 0.3333333333333334 0.3333333333333334 0.3333333333333334 0.3333333333333334 0 1 0 0.3333333333333334 0.3333333333333334 0.3333333333333334 0.3333333333333334 0.3333333333333334 0.3333333333333334 0.3333333333333334 0.3333333333333334 0.3333333333333334 0.04471331 0.85849553 0.09679116 0.00988533 0.97240016 0.01771451 0.35135135 0.08108108 0.56756757 0.45833333 0.04166667 0.5 0.1428571142857114 0.6785714678571468 0.1785714178571418 0.002210634 0.994501757 0.003287609 0.4444444444444445 0.2222222222222222 0.3333333333333334 0.6 0 0.4 0 0.8 0.2 0 0.98484848 0.01515152 0 0.95238095 0.04761905 0 1 0 0.46 0.44 0.1 0.2190476219047622 0.6333333633333363 0.1476190147619015 0.4444444 0.3888889 0.1666667 0.25 0.625 0.125 0 0.9980407947562507 0.001959205243749299 0 1 0 0 1 0 0 1 0 0.0001288842232382928 0.9998711157767617 0 0.0002011092755010354 0.999633660036289 0.0001652306882099336 0.001067895680092124 0.998932104319908 0 0 1 0 0 1 0 0 1 0 0 1 0 0 1 0 0 0.98039216 0.01960784 0 1 0 0 1 0 0 0.9947589099999999 0.00524109 0 0.1303538 0.8696462 0 1 0 0 0.0625 0.9375 0 0 1 1 0 0 0.1675126901675127 0.8314720818314721 0.001015228001015228 0.8333333000000001 0.1666667 0 0.3333333333333334 0.3333333333333334 0.3333333333333334 0 1 0 0 0.96666667 0.03333333 0 0.6666667 0.3333333 0.3333333333333334 0.3333333333333334 0.3333333333333334 0.3333333333333334 0.3333333333333334 0.3333333333333334 0 1 0 0.3333333333333334 0.3333333333333334 0.3333333333333334 0.3333333333333334 0.3333333333333334 0.3333333333333334 0.3333333333333334 0.3333333333333334 0.3333333333333334 0.3333333333333334 0.3333333333333334 0.3333333333333334 0.3333333333333334 0.3333333333333334 0.3333333333333334 0.3333333333333334 0.3333333333333334 0.3333333333333334 0.3333333333333334 0.3333333333333334 0.3333333333333334 0.3333333333333334 0.3333333333333334 0.3333333333333334 0.3333333333333334 0.3333333333333334 0.3333333333333334 0.3333333333333334 0.3333333333333334 0.3333333333333334 0.3333333333333334 0.3333333333333334 0.3333333333333334 0.3333333333333334 0.3333333333333334 0.3333333333333334 0.3333333333333334 0.3333333333333334 0.3333333333333334 0.3333333333333334 0.3333333333333334 0.3333333333333334 0.3333333333333334 0.3333333333333334 0.3333333333333334 0.3333333333333334 0.3333333333333334 0.3333333333333334 0.3333333333333334 0.3333333333333334 0.3333333333333334 0.3333333333333334 0.3333333333333334 0.3333333333333334 0 1 0 0 1 0 0 1 0 0.2321381253383541 0.5357237493232918 0.2321381253383541 0 1 0 0 1 0 0.04765433080103926 0.9046913383979216 0.04765433080103926 0.05908598933303601 0.8818280213339281 0.05908598933303601 0.3333333333333334 0.3333333333333334 0.3333333333333334 0.1774507623692815 0.6450984752614369 0.1774507623692815 0.3144257555556025 0.371148488888795 0.3144257555556025 0.3113763099404986 0.3772473801190027 0.3113763099404986 0.3333333333333334 0.3333333333333334 0.3333333333333334 0.3333333333333334 0.3333333333333334 0.3333333333333334 0.2807599514574444 0.4384800970851113 0.2807599514574444 0.3333333333333334 0.3333333333333334 0.3333333333333334 0.3333333333333334 0.3333333333333334 0.3333333333333334 0.3333333333333334 0.3333333333333334 0.3333333333333334 0.3333333333333334 0.3333333333333334 0.3333333333333334 0.3333333333333334 0.3333333333333334 0.3333333333333334 0.3333333333333334 0.3333333333333334 0.3333333333333334 0.3333333333333334 0.3333333333333334 0.3333333333333334 0.3333333333333334 0.3333333333333334 0.3333333333333334 0.3333333333333334 0.3333333333333334 0.3333333333333334 0.3333333333333334 0.3333333333333334 0.3333333333333334 0.3333333333333334 0.3333333333333334 0.3333333333333334 0.3333333333333334 0.3333333333333334 0.3333333333333334 0.3333333333333334 0.3333333333333334 0.3333333333333334 0.3333333333333334 0.3333333333333334 0.3333333333333334 0.3333333333333334 0.3333333333333334 0.3333333333333334 0.3333333333333334 0.3333333333333334 0.3333333333333334 0.3333333333333334 0.3333333333333334 0.3333333333333334</probabilities>
		</cpt>
		<cpt id="srvdiffhostrate" dynamic="plate">
			<state id="high" />
			<state id="low" />
			<state id="lowmid" />
			<state id="mid" />
			<parents>service flag count samesrvrate</parents>
			<probabilities>0.25 0.25 0.25 0.25 0.25 0.25 0.25 0.25 0.25 0.25 0.25 0.25 0.25 0.25 0.25 0.25 0.25 0.25 0.25 0.25 0.25 0.25 0.25 0.25 0.25 0.25 0.25 0.25 0.25 0.25 0.25 0.25 0.25 0.25 0.25 0.25 0.25 0.25 0.25 0.25 0.25 0.25 0.25 0.25 0.25 0.25 0.25 0.25 0.25 0.25 0.25 0.25 0.25 0.25 0.25 0.25 0.25 0.25 0.25 0.25 0.25 0.25 0.25 0.25 0.25 0.25 0.25 0.25 0.25 0.25 0.25 0.25 0.25 0.25 0.25 0.25 0.25 0.25 0.25 0.25 0.25 0.25 0.25 0.25 0.25 0.25 0.25 0.25 0.25 0.25 0.25 0.25 0.25 0.25 0.25 0.25 0.25 0.25 0.25 0.25 0.25 0.25 0.25 0.25 0.25 0.25 0.25 0.25 0.25 0.25 0.25 0.25 0.25 0.25 0.25 0.25 0.875 0.125 0 0 0 1 0 0 0 1 0 0 0.25 0.25 0.25 0.25 0.25 0.25 0.25 0.25 0.25 0.25 0.25 0.25 0.25 0.25 0.25 0.25 0.25 0.25 0.25 0.25 0.25 0.25 0.25 0.25 0.25 0.25 0.25 0.25 0.25 0.25 0.25 0.25 0.25 0.25 0.25 0.25 0.25 0.25 0.25 0.25 0.25 0.25 0.25 0.25 0.25 0.25 0.25 0.25 0.25 0.25 0.25 0.25 0.25 0.25 0.25 0.25 0.25 0.25 0.25 0.25 0.25 0.25 0.25 0.25 0.25 0.25 0.25 0.25 0.25 0.25 0.25 0.25 0.25 0.25 0.25 0.25 0.25 0.25 0.25 0.25 0.25 0.25 0.25 0.25 0.25 0.25 0.25 0.25 0.25 0.25 0.25 0.25 0.25 0.25 0.25 0.25 0.25 0.25 0.25 0.25 0.25 0.25 0.25 0.25 0.25 0.25 0.25 0.25 0.25 0.25 0.25 0.25 0.25 0.25 0.25 0.25 0.25 0.25 0.25 0.25 0.25 0.25 0.25 0.25 0.25 0.25 0.25 0.25 0.25 0.25 0.25 0.25 0.25 0.25 0.25 0.25 0.25 0.25 0.25 0.25 0.25 0.25 0.25 0.25 0.25 0.25 0.25 0.25 0.25 0.25 0.25 0.25 0.25 0.25 0.25 0.25 0.25 0.25 0.25 0.25 0.25 0.25 0.25 0.25 0.25 0.25 0.25 0.25 0.25 0.25 0.25 0.25 0.25 0.25 0.25 0.25 0.2014285059319958 0.4360233156151844 0.18127408922641 0.18127408922641 0.07656573772468377 0.9234342622753161 0 0 0.2128783322964576 0.3721654485014994 0.2074781096010215 0.2074781096010215 0.244574065195963 0.2662778044121109 0.244574065195963 0.244574065195963 0.25 0.25 0.25 0.25 0.25 0.25 0.25 0.25 0.25 0.25 0.25 0.25 0.25 0.25 0.25 0.25 0.25 0.25 0.25 0.25 0.25 0.25 0.25 0.25 0.25 0.25 0.25 0.25 0.25 0.25 0.25 0.25 0.25 0.25 0.25 0.25 0.25 0.25 0.25 0.25 0.25 0.25 0.25 0.25 0.25 0.25 0.25 0.25 0.25 0.25 0.25 0.25 0.25 0.25 0.25 0.25 0.25 0.25 0.25 0.25 0.25 0.25 0.25 0.25 0.25 0.25 0.25 0.25 0.25 0.25 0.25 0.25 0.25 0.25 0.25 0.25 0.25 0.25 0.25 0.25 0.25 0.25 0.25 0.25 0.25 0.25 0.25 0.25 0.25 0.25 0.25 0.25 0.25 0.25 0.25 0.25 0.25 0.25 0.25 0.25 0.25 0.25 0.25 0.25 0.25 0.25 0.25 0.25 0.25 0.25 0.25 0.25 0.25 0.25 0.25 0.25 0.25 0.25 0.25 0.25 0.25 0.25 0.25 0.25 0.25 0.25 0.25 0.25 0.25 0.25 0.25 0.25 0.25 0.25 0.25 0.25 0.25 0.25 0.25 0.25 0.25 0.25 0.25 0.25 0.25 0.25 0.25 0.25 0.25 0.25 0.25 0.25 0.25 0.25 0.25 0.25 0.25 0.25 0.25 0.25 0.25 0.25 0.25 0.25 0.25 0.25 0.25 0.25 0.25 0.25 0.25 0.25 0.25 0.25 0.25 0.25 0.25 0.25 0.25 0.25 0.25 0.25 0.25 0.25 0.25 0.25 0.25 0.25 0.25 0.25 0.25 0.25 0.25 0.25 0.25 0.25 0.25 0.25 0.25 0.25 0.25 0.25 0.25 0.25 0.25 0.25 0.25 0.25 0.25 0.25 0.25 0.25 0.25 0.25 0.25 0.25 0.25 0.25 0.25 0.25 0.25 0.25 0.25 0.25 0.25 0.25 0.25 0.25 0.25 0.25 0.25 0.25 0.25 0.25 0.25 0.25 0.25 0.25 0.25 0.25 0.25 0.25 0.25 0.25 0.25 0.25 0.25 0.25 0.25 0.25 0.25 0.25 0.25 0.25 0.25 0.25 0.25 0.25 0.25 0.25 0.25 0.25 0.25 0.25 0.25 0.25 0.25 0.25 0.25 0.25 0.25 0.25 0.25 0.25 0.25 0.25 0.25 0.25 0.25 0.25 0.25 0.25 0.25 0.25 0.25 0.25 0.25 0.25 0.25 0.25 0.25 0.25 0.25 0.25 0.25 0.25 0.25 0.25 0.25 0.25 0.25 0.25 0.25 0.25 0.008429489 0.991570511 0 0 1 0 0 0 1 0 0 0 0.25 0.25 0.25 0.25 0.1688879899978529 0.8295456672825355 0.001566342719611661 0 0.09398730904419868 0.9037879798036134 0.0003707851798572078 0.001853925972330721 0.2542417634442709 0.322022601795619 0.211867817380055 0.211867817380055 0.1783908600723763 0.4648274197828713 0.1783908600723763 0.1783908600723763 0.7195531 0.2804469 0 0 0.97183099 0 0 0.02816901 0.25 0.25 0.25 0.25 0.25 0.25 0.25 0.25 0 1 0 0 0.25 0.25 0.25 0.25 0.25 0.25 0.25 0.25 0.25 0.25 0.25 0.25 0.1069528606952861 0.6506206650620665 0.1290084129008413 0.1134180613418061 0.97866667 0.02133333 0 0 1 0 0 0 1 0 0 0 0 1 0 0 0.25 0.25 0.25 0.25 0.25 0.25 0.25 0.25 0.25 0.25 0.25 0.25 1 0 0 0 0.25 0.25 0.25 0.25 1 0 0 0 1 0 0 0 1 0 0 0 1 0 0 0 1 0 0 0 1 0 0 0 1 0 0 0 0.25 0.25 0.25 0.25 1 0 0 0 1 0 0 0 1 0 0 0 1 0 0 0 1 0 0 0 1 0 0 0 0.0001569453707422985 0 0.9998430546292577 0 0.998680739 0.001319261 0 0 1 0 0 0 1 0 0 0 1 0 0 0 1 0 0 0 1 0 0 0 0.25 0.25 0.25 0.25 1 0 0 0 0.25 0.25 0.25 0.25 0.25 0.25 0.25 0.25 1 0 0 0 1 0 0 0 1 0 0 0 1 0 0 0 1 0 0 0 1 0 0 0 0.25 0.25 0.25 0.25 0.25 0.25 0.25 0.25 0.25 0.25 0.25 0.25 1 0 0 0 0.25 0.25 0.25 0.25 0.25 0.25 0.25 0.25 1 0 0 0 1 0 0 0 1 0 0 0 0.25 0.25 0.25 0.25 0.25 0.25 0.25 0.25 1 0 0 0 0.25 0.25 0.25 0.25 0.25 0.25 0.25 0.25 0.25 0.25 0.25 0.25 1 0 0 0 1 0 0 0 1 0 0 0 1 0 0 0 0.9993958312 0.0001006948 0.0002013896 0.0003020844 1 0 0 0 1 0 0 0 1 0 0 0 1 0 0 0 1 0 0 0 0.25 0.25 0.25 0.25 0.25 0.25 0.25 0.25 0 1 0 0 0.25 0.25 0.25 0.25 0.25 0.25 0.25 0.25 0.25 0.25 0.25 0.25 0.02856634244077812 0.2214660696607023 0.7208375837833163 0.02913000411520324 0.2340682455628275 0.7659317544371723 0 0 0.2034496792081968 0.6160639088923084 0 0.1804864118994947 0.7510713865147607 0.09172762898967504 0.01746677706425423 0.1397342074313101 0 0.99339934 0.00660066 0 0.25 0.25 0.25 0.25 0.25 0.25 0.25 0.25 0.25 0.25 0.25 0.25 0.25 0.25 0.25 0.25 0.25 0.25 0.25 0.25 0.25 0.25 0.25 0.25 0.25 0.25 0.25 0.25 0.3169533 0.3366093 0.1670762 0.1793612 0.5299539 0.4700461 0 0 0 1 0 0 0 1 0 0 0.25 0.25 0.25 0.25 0.25 0.25 0.25 0.25 0.25 0.25 0.25 0.25 0.25 0.25 0.25 0.25 1 0 0 0 0.0195122 0.9804878 0 0 0.25 0.25 0.25 0.25 0.25 0.25 0.25 0.25 0.93989899 0.05 0 0.01010101 0.993333333 0.006666667 0 0 0.9931034480000001 0.006896552 0 0 0.92592593 0.07407407000000001 0 0 0.2684825 0.7315175 0 0 0.90384615 0.09615385 0 0 1 0 0 0 0.25 0.25 0.25 0.25 1 0 0 0 1 0 0 0 0.25 0.25 0.25 0.25 1 0 0 0 0.9976081757 0.0002174386 0.0017395086 0.0004348771 1 0 0 0 0.9807692300000001 0 0 0.01923077 0.9375 0 0 0.0625 1 0 0 0 1 0 0 0 0.25 0.25 0.25 0.25 1 0 0 0 0.25 0.25 0.25 0.25 0.25 0.25 0.25 0.25 0.25 0.25 0.25 0.25 1 0 0 0 1 0 0 0 0.97560976 0.02439024 0 0 1 0 0 0 0.98888889 0.01111111 0 0 0.25 0.25 0.25 0.25 0.25 0.25 0.25 0.25 0.25 0.25 0.25 0.25 0.25 0.25 0.25 0.25 0.25 0.25 0.25 0.25 0.25 0.25 0.25 0.25 0.25 0.25 0.25 0.25 0.25 0.25 0.25 0.25 1 0 0 0 1 0 0 0 0.25 0.25 0.25 0.25 0.25 0.25 0.25 0.25 0.25 0.25 0.25 0.25 0.25 0.25 0.25 0.25 0.25 0.25 0.25 0.25 0.25 0.25 0.25 0.25 1 0 0 0 0.25 0.25 0.25 0.25 0.25 0.25 0.25 0.25 1 0 0 0 1 0 0 0 1 0 0 0 1 0 0 0 0.25 0.25 0.25 0.25 1 0 0 0 0.25 0.25 0.25 0.25 0.25 0.25 0.25 0.25 0.25 0.25 0.25 0.25 0.25 0.25 0.25 0.25 0.25 0.25 0.25 0.25 0.25 0.25 0.25 0.25 0.25 0.25 0.25 0.25 0.03829935080936646 0.6206738333105398 0.2437102292449497 0.09731658663514396 0.199176838731645 0.7944325857815663 0.003195287743394456 0.003195287743394456 0.4518729351749518 0.1265589398638602 0.00147349939608328 0.4200946255651047 0.1251915427923705 0.2523349597657185 0.0009611636436648993 0.6215123337982462 0 1 0 0 0 0.9941176470000001 0.005882353 0 1 0 0 0 0 1 0 0 0.25 0.25 0.25 0.25 0.25 0.25 0.25 0.25 0.25 0.25 0.25 0.25 0.25 0.25 0.25 0.25 0.375 0.5 0 0.125 0.25 0.25 0.25 0.25 0.25 0.25 0.25 0.25 0.25 0.25 0.25 0.25 0.25 0.25 0.25 0.25 0.25 0.25 0.25 0.25 0.25 0.25 0.25 0.25 0.25 0.25 0.25 0.25 0.25 0.25 0.25 0.25 0.25 0.25 0.25 0.25 0.25 0.25 0.25 0.25 0.25 0.25 0.25 0.25 1 0 0 0 1 0 0 0 0.25 0.25 0.25 0.25 0.25 0.25 0.25 0.25 0.25 0.25 0.25 0.25 0.25 0.25 0.25 0.25 0.25 0.25 0.25 0.25 0.25 0.25 0.25 0.25 0.25 0.25 0.25 0.25 0.25 0.25 0.25 0.25 0.25 0.25 0.25 0.25 0.25 0.25 0.25 0.25 0.137931 0.2413793 0.6206897 0 0.8888889 0.1111111 0 0 0.25 0.25 0.25 0.25 0.25 0.25 0.25 0.25 0.25 0.25 0.25 0.25 0.25 0.25 0.25 0.25 0.25 0.25 0.25 0.25 0.25 0.25 0.25 0.25 0.25 0.25 0.25 0.25 0.25 0.25 0.25 0.25 0.25 0.25 0.25 0.25 0.25 0.25 0.25 0.25 0.25 0.25 0.25 0.25 0.25 0.25 0.25 0.25 0.25 0.25 0.25 0.25 0.25 0.25 0.25 0.25 0.25 0.25 0.25 0.25 0.25 0.25 0.25 0.25 0.25 0.25 0.25 0.25 0.25 0.25 0.25 0.25 0.25 0.25 0.25 0.25 0.25 0.25 0.25 0.25 0.25 0.25 0.25 0.25 0.25 0.25 0.25 0.25 0.25 0.25 0.25 0.25 0.25 0.25 0.25 0.25 0.25 0.25 0.25 0.25 0.25 0.25 0.25 0.25 0.25 0.25 0.25 0.25 0.25 0.25 0.25 0.25 0.25 0.25 0.25 0.25 0.25 0.25 0.25 0.25 0.25 0.25 0.25 0.25 0.25 0.25 0.25 0.25 0.25 0.25 0.25 0.25 0.25 0.25 0.25 0.25 0.25 0.25 0.25 0.25 0.25 0.25 0.25 0.25 0.25 0.25 0.25 0.25 0.25 0.25 0.25 0.25 0.25 0.25 0.25 0.25 0.25 0.25 0.25 0.25 0.25 0.25 0.25 0.25 0.25 0.25 0.25 0.25 0.25 0.25 0.25 0.25 0.25 0.25 0.25 0.25 0.25 0.25 0.25 0.25 0.25 0.25 0.25 0.25 0.3216775613322531 0.6105235006331342 0.01465922988712026 0.05313970814749233 0.0173620793430139 0.9826379206569862 0 0 0.136477696513676 0.6146552785369136 0.1244335124747052 0.1244335124747052 0.2105699635930833 0.3682901092207502 0.2105699635930833 0.2105699635930833 0.25 0.25 0.25 0.25 0.25 0.25 0.25 0.25 0.25 0.25 0.25 0.25 0.25 0.25 0.25 0.25</probabilities>
		</cpt>
		<cpt id="dsthostsrvdiffhostrate" dynamic="plate">
			<state id="high" />
			<state id="low" />
			<state id="lowmid" />
			<state id="mid" />
			<parents>duration srvcount srvdiffhostrate dsthostsamesrvrate</parents>
			<probabilities>0.9697614619697614 0.003281014003281014 0.006473353006473353 0.02048417102048417 0.0001794846964554057 0.01449015318249785 0.9660101518456267 0.01932021027542018 0.953410981046589 0.009983360990016638 0.004991680995008319 0.03161397696838602 0.9504132229999999 0.006611569999999999 0.008264463 0.034710744 0.004218114995781885 0.8950072851049928 0.08704655291295345 0.01372804698627196 0.1818182 0.8181818 0 0 0.25 0.25 0.25 0.25 0.25 0.25 0.25 0.25 0.25 0.25 0.25 0.25 0.25 0.25 0.25 0.25 0.25 0.25 0.25 0.25 0.25 0.25 0.25 0.25 0.25 0.25 0.25 0.25 0.25 0.25 0.25 0.25 0.25 0.25 0.25 0.25 0.25 0.25 0.25 0.25 0.990184049 0.000408998 0.002453988 0.006952965 0.999452954 0.000547046 0 0 0.9 0.1 0 0 1 0 0 0 0.1386138613861386 0.7861386178613862 0.05742574057425741 0.0178217801782178 0.4799629333333333 0.5200370666666667 0 0 0.07843137000000001 0.7647058800000001 0.09803922000000001 0.05882353000000001 0 0.9852941200000001 0.01470588 0 0.3826087 0.08695652 0.36521739 0.16521739 0.05882353 0.94117647 0 0 1 0 0 0 0.25 0.25 0.25 0.25 0.8089171919108281 0 0.02547770974522291 0.165605098343949 0.4210526 0.1052632 0 0.4736842 0.25 0.25 0.25 0.25 0.25 0.25 0.25 0.25 0.79090909 0.10909091 0.03636364 0.06363636 0.910602911 0.087318087 0.002079002 0 0.90909091 0 0 0.09090909 1 0 0 0 0 0.9715099699999999 0.02849003 0 0.25 0.25 0.25 0.25 0.25 0.25 0.25 0.25 0.25 0.25 0.25 0.25 0.25 0.25 0.25 0.25 0.25 0.25 0.25 0.25 0.25 0.25 0.25 0.25 0.25 0.25 0.25 0.25 0.25 0.25 0.25 0.25 0.25 0.25 0.25 0.25 0.25 0.25 0.25 0.25 0.25 0.25 0.25 0.25 0.822595288225953 0.0131578901315789 0.0476406504764065 0.1166061711660617 0.0001493008562699021 0.004060503889081584 0.9667866046038127 0.02900359065083585 0.9283422450716578 0.001069518998930481 0.001069518998930481 0.06951871693048127 0.76658163 0 0.00255102 0.23086735 0.007129894 0.8391236709999999 0.127041742 0.026704693 0.2857143 0.7142857 0 0 0.25 0.25 0.25 0.25 0.25 0.25 0.25 0.25 0.25 0.25 0.25 0.25 0.25 0.25 0.25 0.25 0.25 0.25 0.25 0.25 0.25 0.25 0.25 0.25 0.25 0.25 0.25 0.25 0.25 0.25 0.25 0.25 0.25 0.25 0.25 0.25 0.25 0.25 0.25 0.25 0.99066831 2.51528e-005 0.0006975710666666667 0.008608966133333333 0.9999795099411765 2.049005882352941e-005 0 0 0.920608802925545 0 0.0004113533842040313 0.07897984369025092 0.9939024400000001 0 0 0.00609756 0.009586559823008848 0.8366108740707964 0.1260937533628319 0.02770881274336283 0.1549953491389764 0.8371216218165354 0.003940613192519684 0.003942415851968503 0.09445067265625 0.8573430493750001 0.016185538125 0.03202073984375 0.05364720144642857 0.784906041625 0.07188320873214285 0.08956354819642856 0.08504269833333333 0.07055048069444445 0.7570299525000001 0.08737686847222222 0.925 0.03125 0.0125 0.03125 0.7282051277777778 0 0.005128205555555556 0.2666666666666667 0.7999999999999999 0 0.03809523333333333 0.1619047666666667 0.9437433451818184 0.0002677688181818182 0.009623926545454546 0.04636495945454546 0.8574423444444445 0.008385744444444445 0 0.1341719111111111 0.9592760153846154 0 0 0.04072398461538462 0.68125 0 0 0.31875 0.7622377676223777 0.1538461515384615 0.04195804041958041 0.04195804041958041 0.966929134 0.031496063 0.001574803 0 0.94117647 0 0 0.05882353 0.25 0.25 0.25 0.25 0 0.9852556480985255 0.01450653980145066 0.0002378121000237812 0 1 0 0 0 1 0 0 0.25 0.25 0.25 0.25 0 0.875 0.025 0.1 0.25 0.25 0.25 0.25 0.25 0.25 0.25 0.25 0.25 0.25 0.25 0.25 0.25 0.25 0.25 0.25 0.25 0.25 0.25 0.25 0.25 0.25 0.25 0.25 0.25 0.25 0.25 0.25 0.958418125 0.005087505 0.005358839 0.031135531 0.9875795083000001 0.0122056043 0 0.0002148874 0.93528817 0.01718908 0.02123357 0.02628918 0.949390815 0.008434864 0.014995314 0.027179007 0.009771986999999999 0.638436482 0.234527687 0.117263844 0.25 0.25 0.25 0.25 0.25 0.25 0.25 0.25 0.25 0.25 0.25 0.25 0.25 0.25 0.25 0.25 0.25 0.25 0.25 0.25 0.25 0.25 0.25 0.25 0.25 0.25 0.25 0.25 0.25 0.25 0.25 0.25 0.25 0.25 0.25 0.25 0.25 0.25 0.25 0.25 0.25 0.25 0.25 0.25 0.9780427817799999 0.00011973722 0.00119737226 0.02064010874 0.8333533655338875 0.0002662086652330183 0.0831902129004397 0.0831902129004397 0.984375 0.0078125 0.0078125 0 0.99009901 0 0 0.00990099 0.0006802961598637051 0.5610250423897496 0.4374445859588875 0.000850075491499245 0.06915634195652175 0.9307026665217392 8.811969565217392e-005 5.287182608695652e-005 0.00618811875 0.985148515 0.004950495 0.00371287125 0.002617801002617801 0.9816753929816755 0.002617801002617801 0.01308900501308901 0.0001726259782608695 0.03307184999999999 0.9654792660869564 0.001276257934782608 0.6153846138461538 0.3076923069230769 0.0769230792307692 0 0.5 0.3333333 0 0.1666667 1 0 0 0 0.222070438 0.002049093 0.09387406600000001 0.682006403 0.5714286 0.4285714 0 0 0.875 0 0 0.125 1 0 0 0 0.5806452 0.1290323 0.1741935 0.116129 0.8137652 0.1862348 0 0 0.8 0 0.2 0 1 0 0 0 0 0.964467005 0.030456853 0.005076142 0 1 0 0 0 1 0 0 0 1 0 0 0 0 0 1 0.25 0.25 0.25 0.25 0.25 0.25 0.25 0.25 0.25 0.25 0.25 0.25 0.25 0.25 0.25 0.25 0.25 0.25 0.25 0.25 0.25 0.25 0.25 0.25 0.25 0.25 0.25 0.25</probabilities>
		</cpt>
		<cpt id="srcbytes" dynamic="plate">
			<state id="high" />
			<state id="low" />
			<state id="mid" />
			<parents>duration service srvdiffhostrate dsthostsrvdiffhostrate</parents>
			<probabilities>0.2567851487405749 0.4864297025188503 0.2567851487405749 0.3333333333333334 0.3333333333333334 0.3333333333333334 0.3333333333333334 0.3333333333333334 0.3333333333333334 0.3333333333333334 0.3333333333333334 0.3333333333333334 0.3333333333333334 0.3333333333333334 0.3333333333333334 0.3333333333333334 0.3333333333333334 0.3333333333333334 0.3333333333333334 0.3333333333333334 0.3333333333333334 0.3333333333333334 0.3333333333333334 0.3333333333333334 0.3333333333333334 0.3333333333333334 0.3333333333333334 0.3333333333333334 0.3333333333333334 0.3333333333333334 0.3333333333333334 0.3333333333333334 0.3333333333333334 0.3333333333333334 0.3333333333333334 0.3333333333333334 0.3333333333333334 0.3333333333333334 0.3333333333333334 0.3333333333333334 0.3333333333333334 0.3333333333333334 0.3333333333333334 0.3333333333333334 0.3333333333333334 0.3333333333333334 0.3333333333333334 0.3333333333333334 0.05987019551075941 0.792215238494737 0.1479145659945036 0 1 0 0 0.6666667 0.3333333 0 0.84 0.16 0 1 0 0.9998814640483354 0.0001185359516646199 0 0 1 0 0 1 0 0.3333333333333334 0.3333333333333334 0.3333333333333334 0 1 0 0 1 0 0.3333333333333334 0.3333333333333334 0.3333333333333334 0.5 0 0.5 0.3333333333333334 0.3333333333333334 0.3333333333333334 0.3333333333333334 0.3333333333333334 0.3333333333333334 0.3333333333333334 0.2222222222222222 0.4444444444444445 0.01257580830477001 0.9051440835336044 0.08228010816162561 0.02173913 0.82608696 0.15217391 0 0.8 0.2 0 0.8131868 0.1868132 0.006329114 0.85443038 0.139240506 0.0106383 0.8085106 0.1808511 0 0.8571429 0.1428571 0 0 1 0 0.8863636 0.1136364 0 0.5 0.5 0 0.5294118 0.4705882 0.05555556 0.72222222 0.22222222 0.02362205 0.81889764 0.15748031 0.3333333333333334 0.3333333333333334 0.3333333333333334 0 0.6666667 0.3333333 0.05263158 0.52631579 0.42105263 0.006207564802843834 0.9683414186163249 0.02545101658083132 0.004608295 0.940092166 0.055299539 0 0.94666667 0.05333333 0 0.94565217 0.05434783 0.5076923099230769 0.3987179460128206 0.09358974406410257 0 0.95306859 0.04693141 0 0.8928571 0.1071429 0 0.8181818 0.1818182 0 1 0 0.3333333333333334 0.3333333333333334 0.3333333333333334 0 1 0 0 1 0 0 0.8333333000000001 0.1666667 0 1 0 0 1 0 0 0.8571429 0.1428571 0.3315719717453078 0.3368560565093843 0.3315719717453078 0 1 0 0.3333333333333334 0.3333333333333334 0.3333333333333334 0.3333333333333334 0.3333333333333334 0.3333333333333334 0 1 0 0.583333335 0.375 0.041666665 0.3333333333333334 0.3333333333333334 0.3333333333333334 0.3333333333333334 0.3333333333333334 0.3333333333333334 0 1 0 0 1 0 0.3333333333333334 0.3333333333333334 0.3333333333333334 0.3333333333333334 0.3333333333333334 0.3333333333333334 0.3333333333333334 0.3333333333333334 0.3333333333333334 0.3333333333333334 0.3333333333333334 0.3333333333333334 0.3333333333333334 0.3333333333333334 0.3333333333333334 0.3333333333333334 0.3333333333333334 0.3333333333333334 0.2395433853214471 0.5209132293571058 0.2395433853214471 0 1 0 0.3333333333333334 0.3333333333333334 0.3333333333333334 0.3333333333333334 0.3333333333333334 0.3333333333333334 0 1 0 0 1 0 0.3215180660397864 0.3569638679204272 0.3215180660397864 0.3116274452311531 0.3767451095376939 0.3116274452311531 0.3333333333333334 0.3333333333333334 0.3333333333333334 0.3333333333333334 0.3333333333333334 0.3333333333333334 0.3333333333333334 0.3333333333333334 0.3333333333333334 0.3333333333333334 0.3333333333333334 0.3333333333333334 0.3333333333333334 0.3333333333333334 0.3333333333333334 0.3333333333333334 0.3333333333333334 0.3333333333333334 0.3333333333333334 0.3333333333333334 0.3333333333333334 0.3333333333333334 0.3333333333333334 0.3333333333333334 0 1 0 0 1 0 0 1 0 0 1 0 0 1 0 0 1 0 0 1 0 0 1 0 0.3333333333333334 0.3333333333333334 0.3333333333333334 0 1 0 0 1 0 0.3333333333333334 0.3333333333333334 0.3333333333333334 0.3333333333333334 0.3333333333333334 0.3333333333333334 0.3333333333333334 0.3333333333333334 0.3333333333333334 0.3333333333333334 0.3333333333333334 0.3333333333333334 0 1 0 0 0.9858433423033348 0.01415665769666527 0 1 0 0 1 0 0 0.9990315708000001 0.0009684292 0 1 0 0 0.9538889689531821 0.0461110310468179 0 0.6396957782920039 0.3603042217079961 0 0.9998166237532192 0.0001833762467808037 0 0.1664703573333334 0.8335296426666666 0 0.2495854 0.7504146 0 0.3564166418181818 0.6435833581818182 0 0.1423767608571429 0.8576232391428571 0 0.1813698220909091 0.8186301779090909 0 1 0 0 0.97965879 0.02034121 0 0.97708205 0.02291795 0.02320364277172439 0.9763322842256466 0.0004640730026291118 0 1 0 0 1 0 0 0.986486485 0.013513515 3.343581849522592e-005 0.9999665641815048 0 1.275586007684772e-005 0.9999376380089337 4.960613098954906e-005 0 1 0 0.001502393128073069 0.9939904264811041 0.004507180390822814 0 1 0 0 1 0 0 1 0 0 1 0 0 1 0 0 1 0 0 1 0 0 0.997289973 0.002710027 0 1 0 0 1 0 0.3333333333333334 0.3333333333333334 0.3333333333333334 0.3333333333333334 0.3333333333333334 0.3333333333333334 0 1 0 0 1 0 0.219132768602444 0.5617344627951121 0.219132768602444 0.2755663749524972 0.4488672500950056 0.2755663749524972 0.3333333333333334 0.3333333333333334 0.3333333333333334 0.3333333333333334 0.3333333333333334 0.3333333333333334 0 1 0 0.3333333333333334 0.3333333333333334 0.3333333333333334 0 1 0 0.3333333333333334 0.3333333333333334 0.3333333333333334 0.3333333333333334 0.3333333333333334 0.3333333333333334 0 1 0 0.3330898382664742 0.3338203234670518 0.3330898382664742 0 1 0 0.3333333333333334 0.3333333333333334 0.3333333333333334 0.3333333333333334 0.3333333333333334 0.3333333333333334 0.3333333333333334 0.3333333333333334 0.3333333333333334 0.006473365453826967 0.9935266345461731 0 0.3333333333333334 0.3333333333333334 0.3333333333333334 0.3333333333333334 0.3333333333333334 0.3333333333333334 0.3333333333333334 0.3333333333333334 0.3333333333333334 0.3333333333333334 0.3333333333333334 0.3333333333333334 0.3333333333333334 0.3333333333333334 0.3333333333333334 0.3333333333333334 0.3333333333333334 0.3333333333333334 0.3333333333333334 0.3333333333333334 0.3333333333333334 0.3333333333333334 0.3333333333333334 0.3333333333333334 0.3333333333333334 0.3333333333333334 0.3333333333333334 0.3333333333333334 0.3333333333333334 0.3333333333333334 0 1 0 0.3333333333333334 0.3333333333333334 0.3333333333333334 0 1 0 0 1 0 0 1 0 0.04936993847912936 0.9506300615208707 0 0 1 0 0 1 0 0.3333333333333334 0.3333333333333334 0.3333333333333334 0.3333333333333334 0.3333333333333334 0.3333333333333334 0.3333333333333334 0.3333333333333334 0.3333333333333334 0.3333333333333334 0.3333333333333334 0.3333333333333334 0.3333333333333334 0.3333333333333334 0.3333333333333334 0.3333333333333334 0.3333333333333334 0.3333333333333334 0.3333333333333334 0.3333333333333334 0.3333333333333334 0.3333333333333334 0.3333333333333334 0.3333333333333334 0.0006742787995029182 0.9972705839711133 0.002055137229383794 0 0.96610169 0.03389831 0.002702703 0.9918918920000001 0.005405405 0.000141223 0.993927411 0.005931366 0 0.9947916650000001 0.005208335000000001 0.009744845483332945 0.5942881241694139 0.3959670303472532 0 0.08863382592592593 0.9113661740740741 0.001412429 0.988700565 0.009887006 0 0.993261456 0.006738544 0 0.01818312857142857 0.9818168714285714 0 0.05253112471910112 0.9474688752808989 0.0001839588 0.9878587196000001 0.0119573216 0.0001918281 0.99347784385 0.00633032805 0 1 0 0 0.93126991 0.06873008999999999 0 0.9711978 0.0288022 0.0001995628285032278 0.9990877127608198 0.0007127244106771074 0.001901141 0.998098859 0 0 0.995535714 0.004464286 0 0.991935484 0.008064516000000001 0 0.998394864 0.001605136 0.008950669714682502 0.9898734225028988 0.001175907782418586 0 1 0 0 1 0 0 1 0 0 1 0 0 1 0 0 1 0 0 1 0 0 1 0 0 1 0 0 1 0 0 1 0 0 0.9 0.1 0.3333333333333334 0.3333333333333334 0.3333333333333334 0 1 0 0 0.96153846 0.03846154 0.01318831217125878 0.947272923039841 0.03953876478890023 0.3333333333333334 0.3333333333333334 0.3333333333333334 0.3333333333333334 0.3333333333333334 0.3333333333333334 0 1 0 0 1 0 0 1 0 0.3333333333333334 0.3333333333333334 0.3333333333333334 0.3333333333333334 0.3333333333333334 0.3333333333333334 0.3333333333333334 0.3333333333333334 0.3333333333333334 0.3333333333333334 0.3333333333333334 0.3333333333333334 0 1 0</probabilities>
		</cpt>
		<cpt id="dstbytes" dynamic="plate">
			<state id="high" />
			<state id="low" />
			<state id="mid" />
			<parents>duration service srcbytes dsthostsrvdiffhostrate</parents>
			<probabilities>0.3333333333333334 0.3333333333333334 0.3333333333333334 0.3333333333333334 0.3333333333333334 0.3333333333333334 0.3333333333333334 0.3333333333333334 0.3333333333333334 0.3333333333333334 0.3333333333333334 0.3333333333333334 0.2567851487405749 0.4864297025188503 0.2567851487405749 0.3333333333333334 0.3333333333333334 0.3333333333333334 0.3333333333333334 0.3333333333333334 0.3333333333333334 0.3333333333333334 0.3333333333333334 0.3333333333333334 0.3333333333333334 0.3333333333333334 0.3333333333333334 0.3333333333333334 0.3333333333333334 0.3333333333333334 0.3333333333333334 0.3333333333333334 0.3333333333333334 0.3333333333333334 0.3333333333333334 0.3333333333333334 1 0 0 1 0 0 0.3333333333333334 0.3333333333333334 0.3333333333333334 0.6666667 0 0.3333333 0 1 0 0 1 0 0 1 0 0 1 0 0.04651163 0.1627907 0.79069767 0.3333333333333334 0.3333333333333334 0.3333333333333334 0 0 1 0 0.125 0.875 0.96875 0 0.03125 1 0 0 0.3333333333333334 0.3333333333333334 0.3333333333333334 1 0 0 0.000383797693988442 0.8789544811885958 0.1206617211174158 0 0.7217391 0.2782609 0 0.8275862000000001 0.1724138 0 0.8830409 0.1169591 0.58380329 0.03879991 0.3773968 0.6 0 0.4 0.2307692 0 0.7692308 0.46808511 0.08510638 0.44680851 0.825757575 0.12878788 0.045454545 1 0 0 0.3333333333333334 0.3333333333333334 0.3333333333333334 0.3333333333333334 0.3333333333333334 0.3333333333333334 0 0.9794460130195645 0.02055398698043548 0 0.95609436 0.04390564 0 0.8431373 0.1568627 0 0.9126213600000001 0.08737863999999999 0.371875 0.39375 0.234375 0.5974026 0.03896104 0.36363636 0.5714286000000001 0.1428571 0.2857143 0.625 0 0.375 0.3333333333333334 0.3333333333333334 0.3333333333333334 0.75 0.25 0 0.3333333333333334 0.3333333333333334 0.3333333333333334 0.3333333333333334 0.3333333333333334 0.3333333333333334 0 1 0 0 1 0 0.3333333333333334 0.3333333333333334 0.3333333333333334 0.3333333333333334 0.3333333333333334 0.3333333333333334 0.3333333333333334 0.3333333333333334 0.3333333333333334 0 1 0 0.3333333333333334 0.3333333333333334 0.3333333333333334 0.3333333333333334 0.3333333333333334 0.3333333333333334 0.3333333333333334 0.3333333333333334 0.3333333333333334 0.3333333333333334 0.3333333333333334 0.3333333333333334 0.3333333333333334 0.3333333333333334 0.3333333333333334 0.3333333333333334 0.3333333333333334 0.3333333333333334 0 1 0 0 1 0 0.3215180660397864 0.3569638679204272 0.3215180660397864 0.3116274452311531 0.3767451095376939 0.3116274452311531 0.3333333333333334 0.3333333333333334 0.3333333333333334 0.3333333333333334 0.3333333333333334 0.3333333333333334 0.3333333333333334 0.3333333333333334 0.3333333333333334 0.3333333333333334 0.3333333333333334 0.3333333333333334 0.3333333333333334 0.3333333333333334 0.3333333333333334 0.3333333333333334 0.3333333333333334 0.3333333333333334 0.3333333333333334 0.3333333333333334 0.3333333333333334 0.3333333333333334 0.3333333333333334 0.3333333333333334 0 1 0 0 1 0 0 1 0 0 1 0 0.3333333333333334 0.3333333333333334 0.3333333333333334 0.3333333333333334 0.3333333333333334 0.3333333333333334 0.3333333333333334 0.3333333333333334 0.3333333333333334 0.3333333333333334 0.3333333333333334 0.3333333333333334 0.3333333333333334 0.3333333333333334 0.3333333333333334 0.3333333333333334 0.3333333333333334 0.3333333333333334 0.3333333333333334 0.3333333333333334 0.3333333333333334 0.3333333333333334 0.3333333333333334 0.3333333333333334 0 0.9298188131450147 0.0701811868549853 0 0.9843034714981972 0.01569652850180277 0 0.04563963297310386 0.9543603670268962 0 0.999381464489963 0.0006185355100369367 0 0 1 0 0 1 0 0 1 0 0 1 0 1 0 0 1 0 0.3333333333333334 0.3333333333333334 0.3333333333333334 0 1 0 0 1 0 2.791191450984312e-006 0.999993022021796 4.186786753052738e-006 0 1 0 0 1 0 0 1 0 0.02857143 0.9714285700000001 0 0.3333333333333334 0.3333333333333334 0.3333333333333334 0 1 0 0.3333333333333334 0.3333333333333334 0.3333333333333334 0.3333333333333334 0.3333333333333334 0.3333333333333334 0.3333333333333334 0.3333333333333334 0.3333333333333334 0.3333333333333334 0.3333333333333334 0.3333333333333334 0 1 0 0 1 0 0 1 0 0 1 0 0.3333333333333334 0.3333333333333334 0.3333333333333334 0.3333333333333334 0.3333333333333334 0.3333333333333334 0.3333333333333334 0.3333333333333334 0.3333333333333334 0.3333333333333334 0.3333333333333334 0.3333333333333334 0.3333333333333334 0.3333333333333334 0.3333333333333334 0.338395190346778 0.3308024048266111 0.3308024048266111 0.3333333333333334 0.3333333333333334 0.3333333333333334 0.3333333333333334 0.3333333333333334 0.3333333333333334 0.3330898382664742 0.3338203234670518 0.3330898382664742 0 1 0 0.3333333333333334 0.3333333333333334 0.3333333333333334 0.3333333333333334 0.3333333333333334 0.3333333333333334 0.3333333333333334 0.3333333333333334 0.3333333333333334 0.3333333333333334 0.3333333333333334 0.3333333333333334 0.3333333333333334 0.3333333333333334 0.3333333333333334 0.3333333333333334 0.3333333333333334 0.3333333333333334 0.3333333333333334 0.3333333333333334 0.3333333333333334 0.5503201194281946 0.2248399402859027 0.2248399402859027 0.3333333333333334 0.3333333333333334 0.3333333333333334 0.3333333333333334 0.3333333333333334 0.3333333333333334 0 1 0 0 1 0 0 1 0 0 1 0 0.3333333333333334 0.3333333333333334 0.3333333333333334 0.3333333333333334 0.3333333333333334 0.3333333333333334 0.3333333333333334 0.3333333333333334 0.3333333333333334 0.3333333333333334 0.3333333333333334 0.3333333333333334 1 0 0 1 0 0 1 0 0 1 0 0 3.154142782335082e-005 0.5092579550302411 0.4907105035419355 1.889044698874461e-005 0.8220331046000744 0.1779480049529369 1.843861666666667e-005 0.07622524615833333 0.923756315225 0.9985131839489849 0.0002736225696664402 0.001213193481348631 0.62742317 0.04066194 0.33191489 3.815137391304348e-005 4.768921739130435e-006 0.9999570797043478 1.812565284974093e-005 0 0.9999818743471503 0.2351916 0 0.7648084000000001 0 0.8571429 0.1428571 0.6959486096820066 0.1520256951589967 0.1520256951589967 0.3333333333333334 0.3333333333333334 0.3333333333333334 0.3333333333333334 0.3333333333333334 0.3333333333333334 0 0.998661014145144 0.001338985854855985 0 0.9988363078409122 0.001163692159087848 0 0.95686275 0.04313725 0 0.94890511 0.05109489 0.4074074 0.3333333 0.2592593 0.88 0.04 0.08 1 0 0 0 0 1 0.3333333333333334 0.3333333333333334 0.3333333333333334 2.20670366349421e-005 0.999977932963365 0 0.3333333333333334 0.3333333333333334 0.3333333333333334 0.3333333333333334 0.3333333333333334 0.3333333333333334 0 1 0 0 1 0 0 1 0 0 1 0 0 1 0 0 1 0 0.3333333333333334 0.3333333333333334 0.3333333333333334 0.3333333333333334 0.3333333333333334 0.3333333333333334</probabilities>
		</cpt>
		<cpt id="serrorrate" dynamic="plate">
			<state id="high" />
			<state id="low" />
			<state id="lowmid" />
			<state id="mid" />
			<parents>flag count samesrvrate</parents>
			<probabilities>0 1 0 0 0.25 0.25 0.25 0.25 0.25 0.25 0.25 0.25 0.25 0.25 0.25 0.25 0 1 0 0 0 1 0 0 0 1 0 0 0 1 0 0 0 1 0 0 0.25 0.25 0.25 0.25 0.25 0.25 0.25 0.25 0.25 0.25 0.25 0.25 0 0.7910448 0.2089552 0 0 1 0 0 0 1 0 0 0 1 0 0 0.03936392 0.8738269 0.04848801 0.03832117 0.06903353 0.8224852099999999 0.04142012 0.06706114000000001 0.006024096 0.6566265060000001 0.168674699 0.168674699 0.01574803 0.96062992 0.02362205 0 0.007564296999999999 0.63086233 0.295007564 0.066565809 0.01923077000000001 0.7692307700000001 0.01923077000000001 0.19230769 0 1 0 0 0 1 0 0 0 0.8476245 0.1523755 0 0 1 0 0 0 1 0 0 0 1 0 0 0.04762373047623731 0.6589097765890978 0.1828692318286923 0.1105972611059726 0.003472222000000001 0.9826388890000001 0.003472222000000001 0.010416667 0 0.7764705822352942 0.2117647078823529 0.0117647098823529 0.02097902 0.69230769 0.20979021 0.07692308000000001 0.001769762 0.616298668 0.313753582 0.068177988 0 0.95522388 0.04477612 0 0 1 0 0 0 1 0 0 0 0.8235294 0.1764706 0 0.25 0.25 0.25 0.25 0.25 0.25 0.25 0.25 0 1 0 0 0.4601733 0.1708626 0.1474756 0.2214885 0.16483516 0.6153846200000001 0.03296703 0.18681319 0.2040816 0.3469388 0.244898 0.2040816 0.4554455 0 0.3168317 0.2277228 0.15 0.55 0.2 0.09999999999999999 0.25 0.25 0.25 0.25 0.25 0.25 0.25 0.25 0.25 0.25 0.25 0.25 0 0 1 0 0.25 0.25 0.25 0.25 0.25 0.25 0.25 0.25 0 1 0 0 0.300578 0.300578 0.1445087 0.2543353 0 1 0 0 0.25 0.25 0.25 0.25 0.25 0.25 0.25 0.25 0 1 0 0 0.25 0.25 0.25 0.25 0.25 0.25 0.25 0.25 0.25 0.25 0.25 0.25 0 0.6137931 0.3862069 0 0 1 0 0 0 1 0 0 0 1 0 0 0.3756971 0.1298307 0.2173956 0.2770766 0.011607143 0.96875 0.008928571 0.010714286 0.05660377 0.28301887 0.58490566 0.0754717 0.1014493 0.173913 0.3043478 0.4202899 0.04103392958966071 0.2390953176090468 0.420678505793215 0.2991922470080776 0 0.6 0.4 0 0.25 0.25 0.25 0.25 0.25 0.25 0.25 0.25 0 1 0 0 0 1 0 0 0 1 0 0 0.25 0.25 0.25 0.25 9.630274132925229e-005 0.9976143173970689 0.002188699705622076 0.0001006801559798695 2.056208371208207e-005 0.9981516976338569 0.001028103932587734 0.0007996363498432872 0.0002767017307692308 0.9997232982692308 0 0 0.0002089645882352941 0.9997910354117647 0 0 0 1 0 0 0 0.9839743600000001 0.01602564 0 0 1 0 0 0 1 0 0</probabilities>
		</cpt>
		<cpt id="srvserrorrate" dynamic="plate">
			<state id="high" />
			<state id="low" />
			<state id="lowmid" />
			<state id="mid" />
			<parents>service flag count</parents>
			<probabilities>0.25 0.25 0.25 0.25 0.25 0.25 0.25 0.25 0.25 0.25 0.25 0.25 0.25 0.25 0.25 0.25 0.25 0.25 0.25 0.25 0.25 0.25 0.25 0.25 0.25 0.25 0.25 0.25 0 1 0 0 0.25 0.25 0.25 0.25 0.25 0.25 0.25 0.25 0.25 0.25 0.25 0.25 0.25 0.25 0.25 0.25 0.25 0.25 0.25 0.25 0.25 0.25 0.25 0.25 0.25 0.25 0.25 0.25 0.25 0.25 0.25 0.25 0.25 0.25 0.25 0.25 0.25 0.25 0.25 0.25 0.25 0.25 0.25 0.25 0 1 0 0 0.25 0.25 0.25 0.25 0.25 0.25 0.25 0.25 0.25 0.25 0.25 0.25 0.25 0.25 0.25 0.25 0.25 0.25 0.25 0.25 0.25 0.25 0.25 0.25 0.25 0.25 0.25 0.25 0.25 0.25 0.25 0.25 0.25 0.25 0.25 0.25 0.25 0.25 0.25 0.25 0.25 0.25 0.25 0.25 0.25 0.25 0.25 0.25 0.25 0.25 0.25 0.25 0.25 0.25 0.25 0.25 0.25 0.25 0.25 0.25 0.25 0.25 0.25 0.25 0.25 0.25 0.25 0.25 0.25 0.25 0.25 0.25 0.25 0.25 0.25 0.25 0 1 0 0 0 1 0 0 0 1 0 0 0 1 0 0 0 1 0 0 0 1 0 0 0 0.814049587 0.17768595 0.008264463 0.0004591367999540863 0.3076216712692378 0.563820018343618 0.1280991735871901 0 0.37073171 0.6 0.02926829 0 0.5508501455085015 0.4194740741947408 0.02967578029675781 0.0001809191 0.3505608491 0.5533711253 0.0958871065 0 0.3325976233259762 0.62538200625382 0.0420203704202037 0 0.96103896 0.03896104 0 0 0.5587045000000001 0.2550607 0.1862348 0 0.85 0.15 0 0 0.5 0.5 0 0 0.3040540695945931 0.5067567493243251 0.1891891810810819 0 0.5 0.5 0 0 0.7223529 0.2776471 0 0.0002692515 0.3265122958 0.4468677078 0.2263507449 0 0.51042011 0.39761826 0.09196163 0 1 0 0 0 1 0 0 0 1 0 0 0.25 0.25 0.25 0.25 0 1 0 0 0.25 0.25 0.25 0.25 0 1 0 0 0 0.97593801 0.02406199 0 0 1 0 0 0 1 0 0 0.0002088555 0.9233500418 0.07602339180000001 0.0004177109 0 1 0 0 0 1 0 0 0.0001376841999862316 0.9142227729085777 0.08563954289143605 0 0.25 0.25 0.25 0.25 0.25 0.25 0.25 0.25 0 0.96153846 0.03846154 0 0.25 0.25 0.25 0.25 0 1 0 0 0 0.98130841 0.01869159 0 0 1 0 0 0.25 0.25 0.25 0.25 0 0.999892831448877 0.0001071685511230095 0 0 1 0 0 0.25 0.25 0.25 0.25 0 1 0 0 0.25 0.25 0.25 0.25 0.25 0.25 0.25 0.25 0 1 0 0 0.25 0.25 0.25 0.25 0.25 0.25 0.25 0.25 0 1 0 0 0.25 0.25 0.25 0.25 0.25 0.25 0.25 0.25 0.25 0.25 0.25 0.25 0.25 0.25 0.25 0.25 0.25 0.25 0.25 0.25 0.25 0.25 0.25 0.25 0.25 0.25 0.25 0.25 0.25 0.25 0.25 0.25 0.25 0.25 0.25 0.25 0.25 0.25 0.25 0.25 0.25 0.25 0.25 0.25 0 1 0 0 0.25 0.25 0.25 0.25</probabilities>
		</cpt>
		<cpt id="diffsrvrate" dynamic="plate">
			<state id="high" />
			<state id="low" />
			<state id="lowmid" />
			<state id="mid" />
			<parents>count samesrvrate dsthostsrvdiffhostrate</parents>
			<probabilities>0 1 0 0 0 1 0 0 0 1 0 0 0 1 0 0 0.8862745 0 0 0.1137255 1 0 0 0 1 0 0 0 0.93333333 0 0 0.06666667 0 0 0.01454845 0.98545155 0 0 0 1 0 0 0 1 0 0 0 1 0 0.004039924 0.995960076 0 0 0.3846154 0.6153846 0 0 0.125 0.875 0 0 0.1129032 0.8870968 0 0 1 0 0 0 1 0 0 0 1 0 0 0 1 0 0 0.2817512687528169 0.7182460763978873 0 2.654849295774648e-006 0.05555289497744361 0.9444414708546366 0 5.6341679197995e-006 0.03203661 0.96567506 0 0.00228833 0.50573300575 0.49406224405 0 0.0002047502 0 0 0.7373923761904762 0.2626076238095238 0 0 0.8119658000000001 0.1880342 0 0 0.13157895 0.86842105 0 0 0.853092775 0.146907225 0 0.08266297142857142 0.9173370285714286 0 0 0.1849148 0.8150852 0 0 0.0625 0.9375 0 0 0.04678363333333333 0.9532163666666667 0 0 1 0 0 0 1 0 0 0 1 0 0 0 1 0 0 0.96721311 0 0 0.03278689 1 0 0 0 1 0 0 0 1 0 0 0 0 0 0.1777778 0.8222222 0.25 0.25 0.25 0.25 0 0 0.25 0.75 0.25 0.25 0.25 0.25 0 0 1 0 0 0.1153846 0.8846154000000001 0 0.25 0.25 0.25 0.25 0.25 0.25 0.25 0.25</probabilities>
		</cpt>
		<cpt id="dsthostdiffsrvrate" dynamic="plate">
			<state id="high" />
			<state id="low" />
			<state id="lowmid" />
			<state id="mid" />
			<parents>diffsrvrate srvdiffhostrate dsthostsamesrvrate</parents>
			<probabilities>0 1 0 0 0.88754899 0.04757310838709677 0 0.06487790161290322 0 0 0.490099 0.5099010000000001 0 0.2317073 0.7682927000000001 0 0 1 0 0 0.9556996711739131 0.0004262574782608695 0 0.04387407134782609 0 0 0.4754098428571428 0.5245901571428572 0 0.3125 0.6875 0 0.25 0.25 0.25 0.25 1 0 0 0 0.25 0.25 0.25 0.25 0.25 0.25 0.25 0.25 0.25 0.25 0.25 0.25 1 0 0 0 0.25 0.25 0.25 0.25 0.25 0.25 0.25 0.25 0 1 0 0 0.4427074294967213 0.508109242457377 0 0.04918332804590164 0 0 0.5886752 0.4113248 0 0.4022556 0.5977444 0 0 1 0 0 0.2036374405373984 0.7843887682235794 0 0.01197379123902222 0 0 0.3846830360655738 0.6153169639344263 0 0.2109703509433962 0.7890296490566039 0 0 1 0 0 0.2259259225925923 0.1259259325925933 0 0.6481481448148145 0 0 0.3993055555555556 0.6006944444444444 0 0.1354166666666667 0.8645833333333334 0 0 1 0 0 0.05555555555555556 0.4074074090740741 0 0.5370370353703704 0 0 0.5125 0.4875 0 0.2 0.8 0 0 1 0 0 0.3774271622572838 0.5218446478155352 0 0.100728189927181 0 0 0.88448845 0.11551155 0 0.040388925 0.959611075 0 0 1 0 0 0.90384615 0.02884615 0 0.06730770000000001 0 0 0.06388888000000001 0.93611112 0 0.021653545 0.9783464550000001 0 0.25 0.25 0.25 0.25 1 0 0 0 0 0 0.6666667 0.3333333 0 0 1 0 0 1 0 0 0.5069124428571429 0.01382488428571429 0 0.4792626728571429 0 0 0.24166667 0.7583333299999999 0 0.27173913 0.72826087 0 0 1 0 0 0.6905312 0.2009238 0 0.108545 0 0 0.06934595 0.93065405 0 0.09737098 0.90262902 0 0 1 0 0 0.8888889 0 0 0.1111111 0 0 0 1 0 0 1 0 0.25 0.25 0.25 0.25 1 0 0 0 0.25 0.25 0.25 0.25 0.25 0.25 0.25 0.25 0.25 0.25 0.25 0.25 0.6923077 0 0 0.3076923 0 0 0 1 0.25 0.25 0.25 0.25</probabilities>
		</cpt>
		<cpt id="dsthostserrorrate" dynamic="plate">
			<state id="high" />
			<state id="low" />
			<state id="lowmid" />
			<state id="mid" />
			<parents>flag serrorrate dsthostsamesrvrate</parents>
			<probabilities>0.25 0.25 0.25 0.25 0.25 0.25 0.25 0.25 0.25 0.25 0.25 0.25 0.25 0.25 0.25 0.25 0 1 0 0 0 1 0 0 0 1 0 0 0 1 0 0 0.25 0.25 0.25 0.25 0.25 0.25 0.25 0.25 0.25 0.25 0.25 0.25 0.25 0.25 0.25 0.25 0.25 0.25 0.25 0.25 0.25 0.25 0.25 0.25 0.25 0.25 0.25 0.25 0.25 0.25 0.25 0.25 0.6153846 0.3846154 0 0 0.065934066 0.928571429 0.005494505 0 0.25 0.25 0.25 0.25 0.25 0.25 0.25 0.25 0.010127932 0.9824093820000001 0.006396588 0.001066098 0.002583979000000001 0.9958010340000001 0.001614987 0 0 0.96296296 0.03703704 0 0 0.94594595 0.05405405 0 0.127962085 0.815165877 0.047393365 0.009478673 0.05747126 0.94252874 0 0 0 0 0.6666667 0.3333333 0 0 1 0 0.18965517 0.77586207 0.03448276 0 0.1674876848325123 0.8226600981773399 0.009852216990147782 0 0 0 1 0 0.25 0.25 0.25 0.25 0.350961538 0.572115385 0.072115385 0.004807692 0.002544529 0.997455471 0 0 1 0 0 0 0.25 0.25 0.25 0.25 0.007871141 0.966892522 0.022315089 0.002921248 0.0017283097 0.9976667819 0.0006049084 0 0 0.9873511905 0.0119047619 0.0007440476 0 0.9912221472 0.0081026334 0.0006752194 0.044926881 0.8697421979999999 0.078848183 0.006482737999999999 0.0026936027 0.996969697 0.0003367003 0 0.0769230792307692 0.6153846138461538 0.3076923069230769 0 0 0.75 0.25 0 0.1075409810754098 0.8137704981377051 0.06229508062295081 0.0163934401639344 0.002578981 0.997421019 0 0 0 0.5 0.5 0 0.25 0.25 0.25 0.25 0.9659863950000001 0.027210884 0.006802721 0 0 1 0 0 0.25 0.25 0.25 0.25 0.25 0.25 0.25 0.25 0.125 0.72685185 0.06018519 0.08796296000000001 0 1 0 0 0 1 0 0 0 0.6363636 0.3636364 0 0.92746114 0.04663212 0.02590674 0 0 1 0 0 0.25 0.25 0.25 0.25 0.25 0.25 0.25 0.25 0.8125 0.1875 0 0 0 1 0 0 0.25 0.25 0.25 0.25 0.25 0.25 0.25 0.25 0.8461538415384616 0.07692307923076922 0.07692307923076922 0 0 1 0 0 0.25 0.25 0.25 0.25 0.25 0.25 0.25 0.25 0.15384615 0.76923077 0.07692308000000001 0 0 1 0 0 0.25 0.25 0.25 0.25 0.25 0.25 0.25 0.25 0.3333333333333334 0.3333333333333334 0.3333333333333334 0 0 1 0 0 0.25 0.25 0.25 0.25 0.25 0.25 0.25 0.25 0.4 0.5333333300000001 0.06666667 0 0 1 0 0 0.25 0.25 0.25 0.25 0.25 0.25 0.25 0.25 0.70845481 0.22886297 0.05102041 0.01166181 0.001818182 0.9981818180000001 0 0 0.6666667 0 0.3333333 0 1 0 0 0 0.09306834999999999 0.78768783 0.10664081 0.01260301 0.0013416816 0.9982110912 0.0004472272 0 0 0.8125 0.1875 0 0 1 0 0 0.1915399 0.668251 0.1240494 0.0161597 0.002793296 0.997206704 0 0 0.1428571142857114 0.4285714428571443 0.4285714428571443 0 0 0.3333333333333334 0.3333333333333334 0.3333333333333334 0.39861751 0.45238095 0.11904762 0.02995392 0.0008025682 0.9991974318 0 0 0 0.25 0.75 0 0 0 0.2 0.8 1 0 0 0 0 1 0 0 0.25 0.25 0.25 0.25 0.25 0.25 0.25 0.25 0.002207443225811029 0.997792556774189 0 0 0.0002631375920025303 0.9973686244868959 0.00105255016454955 0.00131568775655208 0 0.9999827216826923 1.727831730769231e-005 0 0 0.9999862820136363 1.371798636363636e-005 0 0 1 0 0 0.05882353 0.94117647 0 0 0.25 0.25 0.25 0.25 0.25 0.25 0.25 0.25 0.25 0.25 0.25 0.25 0 1 0 0 0.25 0.25 0.25 0.25 0.25 0.25 0.25 0.25</probabilities>
		</cpt>
		<cpt id="dsthostsrvserrorrate" dynamic="plate">
			<state id="high" />
			<state id="low" />
			<state id="lowmid" />
			<state id="mid" />
			<parents>service flag srvserrorrate</parents>
			<probabilities>0.25 0.25 0.25 0.25 0.25 0.25 0.25 0.25 0.25 0.25 0.25 0.25 0.25 0.25 0.25 0.25 0.25 0.25 0.25 0.25 0.25 0.25 0.25 0.25 0.25 0.25 0.25 0.25 0.25 0.25 0.25 0.25 0.25 0.25 0.25 0.25 0 1 0 0 0.25 0.25 0.25 0.25 0.25 0.25 0.25 0.25 0.25 0.25 0.25 0.25 0.25 0.25 0.25 0.25 0.25 0.25 0.25 0.25 0.25 0.25 0.25 0.25 0.25 0.25 0.25 0.25 0.25 0.25 0.25 0.25 0.25 0.25 0.25 0.25 0.25 0.25 0.25 0.25 0.25 0.25 0.25 0.25 0.25 0.25 0.25 0.25 0.25 0.25 0.25 0.25 0.25 0.25 0.25 0.25 0.25 0.25 0.25 0.25 0 1 0 0 0.25 0.25 0.25 0.25 0.25 0.25 0.25 0.25 0.25 0.25 0.25 0.25 0.25 0.25 0.25 0.25 0.25 0.25 0.25 0.25 0.25 0.25 0.25 0.25 0.25 0.25 0.25 0.25 0.25 0.25 0.25 0.25 0.25 0.25 0.25 0.25 0.25 0.25 0.25 0.25 0.25 0.25 0.25 0.25 0.25 0.25 0.25 0.25 0.25 0.25 0.25 0.25 0.25 0.25 0.25 0.25 0.25 0.25 0.25 0.25 0.25 0.25 0.25 0.25 0.25 0.25 0.25 0.25 0.25 0.25 0.25 0.25 0.25 0.25 0.25 0.25 0.25 0.25 0.25 0.25 0.25 0.25 0.25 0.25 0.25 0.25 0.25 0.25 0.25 0.25 0.25 0.25 0.25 0.25 0.25 0.25 0.25 0.25 0.25 0.25 0.25 0.25 0.25 0.25 0.25 0.25 0.25 0.25 0 1 0 0 0.25 0.25 0.25 0.25 0.25 0.25 0.25 0.25 0.25 0.25 0.25 0.25 0 1 0 0 0.25 0.25 0.25 0.25 0.25 0.25 0.25 0.25 1 0 0 0 0.0009813542999999999 0.5780176644 0.4023552502 0.0186457311 0.002636783002636783 0.760711931760712 0.2228081742228082 0.01384311101384311 0.1058020105802011 0.2423208242320824 0.3071672307167231 0.3447099344709935 1 0 0 0 0.0004463621000446362 0.6461340078646134 0.3474185389347419 0.006001091100600109 0.00040837999959162 0.7869481762130518 0.2082737777917262 0.004369665995630335 0.09217983 0.32338496 0.33509634 0.24933887 0.25 0.25 0.25 0.25 0.05240174947598249 0.2707423572925764 0.6200873337991266 0.0567685594323144 0 0.7536232000000001 0.2463768 0 0.195652180434782 0.2826086717391328 0.195652180434782 0.3260869673913033 0.25 0.25 0.25 0.25 0.02083333 0.47916667 0.47916667 0.02083333 0 0.6923077 0.3076923 0 0.07142857 0.25 0.32142857 0.35714286 1 0 0 0 0.0001560305999843969 0.5244187860475581 0.4596660945540334 0.01575908879842409 0.004208627995791372 0.6769878243230122 0.2952051707047948 0.02359837697640162 0.2114286 0.1135714 0.2692857 0.4057143 0.25 0.25 0.25 0.25 0 1 0 0 0.25 0.25 0.25 0.25 0.25 0.25 0.25 0.25 0.25 0.25 0.25 0.25 0 1 0 0 0.25 0.25 0.25 0.25 0.25 0.25 0.25 0.25 0.25 0.25 0.25 0.25 0.02428891 0.8529881800000001 0.10035155 0.02237136 0.0169491501694915 0.4915254249152543 0.355932203559322 0.1355932213559322 0.25 0.25 0.25 0.25 0 1 0 0 0.08044604 0.46057348 0.17522899 0.28375149 0.1538462 0.3186813 0.25 0.2774725 0 1 0 0 0 1 0 0 0.1392862860713714 0.2499623750037625 0.1921396807860319 0.4186116581388342 0.2009646 0.2282958 0.221865 0.3488746 0.25 0.25 0.25 0.25 0.25 0.25 0.25 0.25 0.12 0.32 0.36 0.2 0 0 0 1 0.25 0.25 0.25 0.25 0.25 0.25 0.25 0.25 0.0532544405325444 0.7435897474358975 0.1360946713609467 0.06706114067061141 0.1666666833333317 0.499999950000005 0.1666666833333317 0.1666666833333317 0.25 0.25 0.25 0.25 0.25 0.25 0.25 0.25 8.766136900900159e-006 0.9997473968394367 0.0001641343808059775 7.970264285645735e-005 0.008648649 0.762162162 0.172972973 0.056216216 0.25 0.25 0.25 0.25 0.25 0.25 0.25 0.25 0 1 0 0 0.25 0.25 0.25 0.25 0.25 0.25 0.25 0.25 0.25 0.25 0.25 0.25 0 1 0 0 0.25 0.25 0.25 0.25 0.25 0.25 0.25 0.25 0.25 0.25 0.25 0.25 0 1 0 0 0.25 0.25 0.25 0.25 0.25 0.25 0.25 0.25 0.25 0.25 0.25 0.25 0.25 0.25 0.25 0.25 0.25 0.25 0.25 0.25 0.25 0.25 0.25 0.25 0.25 0.25 0.25 0.25 0.25 0.25 0.25 0.25 0.25 0.25 0.25 0.25 0.25 0.25 0.25 0.25 0.25 0.25 0.25 0.25 0.25 0.25 0.25 0.25 0.25 0.25 0.25 0.25 0.25 0.25 0.25 0.25 0.25 0.25 0.25 0.25 0 1 0 0 0.25 0.25 0.25 0.25 0.25 0.25 0.25 0.25</probabilities>
		</cpt>
		<cpt id="label" dynamic="plate">
			<state id="Attack" />
			<state id="Normal" />
			<parents>flag srcbytes dstbytes dsthostsrvdiffhostrate</parents>
			<probabilities>0.5 0.5 0.5 0.5 0.5 0.5 0.5 0.5 0.5 0.5 0.5 0.5 0.5 0.5 0.5 0.5 0.5 0.5 0.5 0.5 0.5 0.5 0.5 0.5 0.5 0.5 0.5 0.5 0.5 0.5 0.5 0.5 0.0003056235 0.9996943765 0.6885447 0.3114553 0.1069182 0.8930818 0.003297911 0.996702089 0.5 0.5 0.5 0.5 0.5 0.5 0.5 0.5 0.5 0.5 0.5 0.5 0.5 0.5 0.5 0.5 0.5 0.5 0.5 0.5 0.5 0.5 0.5 0.5 0.5 0.5 0.5 0.5 0.5 0.5 0.5 0.5 0 1 0 1 0.5 0.5 0.5 0.5 0.5 0.5 0.5 0.5 0.5 0.5 0.5 0.5 0.5 0.5 0.5 0.5 0.5 0.5 0.5 0.5 0 1 0 1 0.5 0.5 0.5 0.5 0.001823867 0.998176133 0 1 0 1 0.01020408 0.9897959200000001 0.009975062 0.990024938 0 1 0 1 0.05263158 0.94736842 0.008547009 0.991452991 0 1 0.5 0.5 0 1 0 1 0 1 0.5 0.5 0.5 0.5 0.1125828 0.8874172 0 1 0.5 0.5 0.5 0.5 0 1 0 1 0.5 0.5 0.5 0.5 0 1 0 1 0.5 0.5 0.5 0.5 0 1 0.5 0.5 0.5 0.5 0.5 0.5 0 1 0.5 0.5 0.5 0.5 0.5 0.5 0.000253217 0.999746783 0 1 0 1 0.002398082 0.997601918 0.002656857 0.997343143 0 1 0 1 0.02985075 0.97014925 0.2566489 0.7433511 0.25 0.75 0.5 0.5 0.4285714 0.5714286 0 1 0 1 0.5 0.5 0.5 0.5 0.4669261 0.5330739 0.3333333 0.6666667 0.5 0.5 0.125 0.875 0 1 0.5 0.5 0.5 0.5 0.5 0.5 0 1 0.5 0.5 0.5 0.5 0.5 0.5 0 1 0.5 0.5 0.5 0.5 0.5 0.5 0.5 0.5 0.5 0.5 0.5 0.5 0.5 0.5 0.0008001067 0.9991998933 0.1282051 0.8717949 0 1 0.7142857 0.2857143 0.8636364 0.1363636 0.5 0.5 0.5 0.5 1 0 0 1 0.5 0.5 0.5 0.5 0.5 0.5 0 1 0.5 0.5 0.5 0.5 0.5 0.5 0.72 0.28 0.5 0.5 0.5 0.5 1 0 0 1 0.5 0.5 0.5 0.5 0.5 0.5 0.5 0.5 0.5 0.5 0.5 0.5 0.5 0.5 0.5 0.5 0.5 0.5 0.5 0.5 0.5 0.5 0.5 0.5 0.5 0.5 0.5 0.5 0.5 0.5 0 1 0 1 0.5 0.5 0 1 0.1 0.9 0.5 0.5 0.5 0.5 0.5 0.5 0 1 0.5 0.5 0.5 0.5 0.5 0.5 0.5 0.5 0.5 0.5 0.5 0.5 0.5 0.5 0 1 0.5 0.5 0.5 0.5 0.5 0.5 0 1 0.5 0.5 0.5 0.5 0.5 0.5 0.5 0.5 0.5 0.5 0.5 0.5 0.5 0.5 0 1 0.5 0.5 0.5 0.5 0.5 0.5 0 1 0.5 0.5 0.5 0.5 0.5 0.5 0 1 0 1 0 1 0 1 0 1 0 1 0 1 0 1 0 1 0 1 0 1 0 1 0 1 0.5 0.5 0.5 0.5 0.5 0.5 0.004444444 0.995555556 0 1 0 1 0 1 0 1 0 1 0 1 0 1 0 1 0 1 0.5 0.5 0 1 0 1 0 1 0.5 0.5 0 1 0 1 0 1 0 1 0 1 0 1 0.0001920953 0.9998079047 0.000490076 0.9995099240000001 0 1 0.5003986446000001 0.4996013554 0.3002717 0.6997283 0.4187103 0.5812897 0.02220395 0.97779605 0 1 0.01639344 0.98360656 0.0212766 0.9787234 0 1 0 1 0.02272727 0.97727273 0 1 0 1 0.08914387 0.91085613 0.868256 0.131744 0.8670874 0.1329126 0.8490338 0.1509662</probabilities>
		</cpt>
	</nodes>
	<dynamic numslices="10">
		<cpt id="label" order="1">
			<parents>label</parents>
			<probabilities>0.5 0.5 0.5 0.5 0.5 0.5 0.5 0.5 0.5 0.5 0.5 0.5 0.5 0.5 0.5 0.5 0.5 0.5 0.5 0.5 0.5 0.5 0.5 0.5 0.5 0.5 0.5 0.5 0.5 0.5 0.5 0.5 0.5 0.5 0.5 0.5 0.5 0.5 0.5 0.5 0.5 0.5 0.5 0.5 0.5 0.5 0.5 0.5 0.5 0.5 0.5 0.5 0.5 0.5 0.5 0.5 0.5 0.5 0.5 0.5 0.5 0.5 0.5 0.5 0.0003056235 0.9996943765 0.0003056235 0.9996943765 0.6885447 0.3114553 0.34427235 0.65572765 0.1069182 0.8930818 0.1069182 0.8930818 0.003297911 0.996702089 0.003297911 0.996702089 0.5 0.5 0.5 0.5 0.5 0.5 0.5 0.5 0.5 0.5 0.5 0.5 0.5 0.5 0.5 0.5 0.5 0.5 0.5 0.5 0.5 0.5 0.5 0.5 0.5 0.5 0.5 0.5 0.5 0.5 0.5 0.5 0.5 0.5 0.5 0.5 0.5 0.5 0.5 0.5 0.5 0.5 0.5 0.5 0.5 0.5 0.5 0.5 0.5 0.5 0.5 0.5 0.5 0.5 0.5 0.5 0.5 0.5 0.5 0.5 0.5 0.5 0.5 0.5 0 1 0 1 0 1 0 1 0.5 0.5 0.5 0.5 0.5 0.5 0.5 0.5 0.5 0.5 0.5 0.5 0.5 0.5 0.5 0.5 0.5 0.5 0.5 0.5 0.5 0.5 0.5 0.5 0.5 0.5 0.5 0.5 0.5 0.5 0.5 0.5 0.5 0.5 0.5 0.5 0.5 0.5 0.5 0.5 0 1 0 1 0 1 0 1 0.5 0.5 0.5 0.5 0.5 0.5 0.5 0.5 0.001823867 0.998176133 0.001823867 0.998176133 0 1 0 1 0 1 0 1 0.01020408 0.9897959200000001 0.01020408 0.9897959200000001 0.009975062 0.990024938 0.009975062 0.990024938 0 1 0 1 0 1 0 1 0.05263158 0.94736842 0.05263158 0.94736842 0.008547009 0.991452991 0.008547009 0.991452991 0 1 0 1 0.5 0.5 0.5 0.5 0 1 0 1 0 1 0 1 0 1 0 1 0.5 0.5 0.5 0.5 0.5 0.5 0.5 0.5 0.1125828 0.8874172 0.1125828 0.8874172 0 1 0 1 0.5 0.5 0.5 0.5 0.5 0.5 0.5 0.5 0 1 0 1 0 1 0 1 0.5 0.5 0.5 0.5 0.5 0.5 0.5 0.5 0 1 0 1 0 1 0 1 0.5 0.5 0.5 0.5 0.5 0.5 0.5 0.5 0 1 0 1 0.5 0.5 0.5 0.5 0.5 0.5 0.5 0.5 0.5 0.5 0.5 0.5 0 1 0 1 0.5 0.5 0.5 0.5 0.5 0.5 0.5 0.5 0.5 0.5 0.5 0.5 0.000253217 0.999746783 0.000253217 0.999746783 0 1 0 1 0 1 0 1 0.002398082 0.997601918 0.002398082 0.997601918 0.002656857 0.997343143 0.002656857 0.997343143 0 1 0 1 0 1 0 1 0.02985075 0.97014925 0.02985075 0.97014925 0.2566489 0.7433511 0.2566489 0.7433511 0.25 0.75 0.25 0.75 0.5 0.5 0.5 0.5 0.4285714 0.5714286 0.4285714 0.5714286 0 1 0 1 0 1 0 1 0.5 0.5 0.5 0.5 0.5 0.5 0.5 0.5 0.4669261 0.5330739 0.4669261 0.5330739 0.3333333 0.6666667 0.3333333 0.6666667 0.5 0.5 0.5 0.5 0.125 0.875 0.125 0.875 0 1 0 1 0.5 0.5 0.5 0.5 0.5 0.5 0.5 0.5 0.5 0.5 0.5 0.5 0 1 0 1 0.5 0.5 0.5 0.5 0.5 0.5 0.5 0.5 0.5 0.5 0.5 0.5 0 1 0 1 0.5 0.5 0.5 0.5 0.5 0.5 0.5 0.5 0.5 0.5 0.5 0.5 0.5 0.5 0.5 0.5 0.5 0.5 0.5 0.5 0.5 0.5 0.5 0.5 0.5 0.5 0.5 0.5 0.0008001067 0.9991998933 0.0008001067 0.9991998933 0.1282051 0.8717949 0.1282051 0.8717949 0 1 0 1 0.7142857 0.2857143 0.7142857 0.2857143 0.8636364 0.1363636 0.8636364 0.1363636 0.5 0.5 0.5 0.5 0.5 0.5 0.5 0.5 1 0 1 0 0 1 0 1 0.5 0.5 0.5 0.5 0.5 0.5 0.5 0.5 0.5 0.5 0.5 0.5 0 1 0 1 0.5 0.5 0.5 0.5 0.5 0.5 0.5 0.5 0.5 0.5 0.5 0.5 0.72 0.28 0.72 0.28 0.5 0.5 0.5 0.5 0.5 0.5 0.5 0.5 1 0 1 0 0 1 0 1 0.5 0.5 0.5 0.5 0.5 0.5 0.5 0.5 0.5 0.5 0.5 0.5 0.5 0.5 0.5 0.5 0.5 0.5 0.5 0.5 0.5 0.5 0.5 0.5 0.5 0.5 0.5 0.5 0.5 0.5 0.5 0.5 0.5 0.5 0.5 0.5 0.5 0.5 0.5 0.5 0.5 0.5 0.5 0.5 0.5 0.5 0.5 0.5 0.5 0.5 0.5 0.5 0.5 0.5 0.5 0.5 0.5 0.5 0.5 0.5 0 1 0 1 0 1 0 1 0.5 0.5 0.5 0.5 0 1 0 1 0.1 0.9 0.1 0.9 0.5 0.5 0.5 0.5 0.5 0.5 0.5 0.5 0.5 0.5 0.5 0.5 0 1 0 1 0.5 0.5 0.5 0.5 0.5 0.5 0.5 0.5 0.5 0.5 0.5 0.5 0.5 0.5 0.5 0.5 0.5 0.5 0.5 0.5 0.5 0.5 0.5 0.5 0.5 0.5 0.5 0.5 0 1 0 1 0.5 0.5 0.5 0.5 0.5 0.5 0.5 0.5 0.5 0.5 0.5 0.5 0 1 0 1 0.5 0.5 0.5 0.5 0.5 0.5 0.5 0.5 0.5 0.5 0.5 0.5 0.5 0.5 0.5 0.5 0.5 0.5 0.5 0.5 0.5 0.5 0.5 0.5 0.5 0.5 0.5 0.5 0 1 0 1 0.5 0.5 0.5 0.5 0.5 0.5 0.5 0.5 0.5 0.5 0.5 0.5 0 1 0 1 0.5 0.5 0.5 0.5 0.5 0.5 0.5 0.5 0.5 0.5 0.5 0.5 0 1 0 1 0 1 0 1 0 1 0 1 0 1 0 1 0 1 0 1 0 1 0 1 0 1 0 1 0 1 0 1 0 1 0 1 0 1 0 1 0 1 0 1 0 1 0 1 0 1 0 1 0.5 0.5 0.5 0.5 0.5 0.5 0.5 0.5 0.5 0.5 0.5 0.5 0.004444444 0.995555556 0.004444444 0.995555556 0 1 0 1 0 1 0 1 0 1 0 1 0 1 0 1 0 1 0 1 0 1 0 1 0 1 0 1 0 1 0 1 0 1 0 1 0.5 0.5 0.5 0.5 0 1 0 1 0 1 0 1 0 1 0 1 0.5 0.5 0.5 0.5 0 1 0 1 0 1 0 1 0 1 0 1 0 1 0 1 0 1 0 1 0 1 0 1 9.604765e-005 0.99990395235 4.446650462962963e-007 0.9999995553349537 0.000490076 0.9995099240000001 3.062975e-005 0.99996937025 0 1 0 1 0.5003986446000001 0.4996013554 7.248083636363637e-005 0.9999275191636364 0.8833786166666666 0.1166213833333333 0.1000905666666667 0.8999094333333333 0.9829032441176471 0.01709675588235294 0.4187103 0.5812897 0.02220395 0.97779605 0.02220395 0.97779605 0 1 0 1 0.01639344 0.98360656 0.01639344 0.98360656 0.0212766 0.9787234 0.0212766 0.9787234 0 1 0 1 0 1 0 1 0.02272727 0.97727273 0.02272727 0.97727273 0 1 0 1 0 1 0 1 0.943071491875 0.056928508125 0.08914387 0.91085613 0.9963404444444445 0.003659555555555556 0.868256 0.131744 0.9994221191304348 0.0005778808695652174 0.8670874 0.1329126 0.9784334 0.0215666 0.8490338 0.1509662</probabilities>
		</cpt>
	</dynamic>
	<extensions>
		<genie version="1.0" app="SMILE Apr 10 2014" name="Sub0" faultnameformat="nodestate">
			<plate leftwidth="120" rightwidth="120">20 20 620 320</plate>
			<node id="duration">
				<name>duration</name>
				<interior color="e5f6f7" />
				<outline color="0000bb" />
				<font color="000000" name="MS Sans Serif" size="8" />
				<position>-38 -18 38 18</position>
			</node>
			<node id="protocoltype">
				<name>protocoltype</name>
				<interior color="e5f6f7" />
				<outline color="0000bb" />
				<font color="000000" name="MS Sans Serif" size="8" />
				<position>-38 -18 38 18</position>
			</node>
			<node id="service">
				<name>service</name>
				<interior color="e5f6f7" />
				<outline color="0000bb" />
				<font color="000000" name="MS Sans Serif" size="8" />
				<position>-38 -18 38 18</position>
			</node>
			<node id="flag">
				<name>flag</name>
				<interior color="e5f6f7" />
				<outline color="0000bb" />
				<font color="000000" name="MS Sans Serif" size="8" />
				<position>-38 -18 38 18</position>
			</node>
			<node id="srcbytes">
				<name>srcbytes</name>
				<interior color="e5f6f7" />
				<outline color="0000bb" />
				<font color="000000" name="MS Sans Serif" size="8" />
				<position>-38 -18 38 18</position>
			</node>
			<node id="dstbytes">
				<name>dstbytes</name>
				<interior color="e5f6f7" />
				<outline color="0000bb" />
				<font color="000000" name="MS Sans Serif" size="8" />
				<position>-38 -18 38 18</position>
			</node>
			<node id="count">
				<name>count</name>
				<interior color="e5f6f7" />
				<outline color="0000bb" />
				<font color="000000" name="MS Sans Serif" size="8" />
				<position>-38 -18 38 18</position>
			</node>
			<node id="srvcount">
				<name>srvcount</name>
				<interior color="e5f6f7" />
				<outline color="0000bb" />
				<font color="000000" name="MS Sans Serif" size="8" />
				<position>-38 -18 38 18</position>
			</node>
			<node id="serrorrate">
				<name>serrorrate</name>
				<interior color="e5f6f7" />
				<outline color="0000bb" />
				<font color="000000" name="MS Sans Serif" size="8" />
				<position>-38 -18 38 18</position>
			</node>
			<node id="srvserrorrate">
				<name>srvserrorrate</name>
				<interior color="e5f6f7" />
				<outline color="0000bb" />
				<font color="000000" name="MS Sans Serif" size="8" />
				<position>-38 -18 38 18</position>
			</node>
			<node id="samesrvrate">
				<name>samesrvrate</name>
				<interior color="e5f6f7" />
				<outline color="0000bb" />
				<font color="000000" name="MS Sans Serif" size="8" />
				<position>-38 -18 38 18</position>
			</node>
			<node id="diffsrvrate">
				<name>diffsrvrate</name>
				<interior color="e5f6f7" />
				<outline color="0000bb" />
				<font color="000000" name="MS Sans Serif" size="8" />
				<position>-38 -18 38 18</position>
			</node>
			<node id="srvdiffhostrate">
				<name>srvdiffhostrate</name>
				<interior color="e5f6f7" />
				<outline color="0000bb" />
				<font color="000000" name="MS Sans Serif" size="8" />
				<position>-38 -18 38 18</position>
			</node>
			<node id="dsthostsamesrvrate">
				<name>dsthostsamesrvrate</name>
				<interior color="e5f6f7" />
				<outline color="0000bb" />
				<font color="000000" name="MS Sans Serif" size="8" />
				<position>-38 -18 38 18</position>
			</node>
			<node id="dsthostdiffsrvrate">
				<name>dsthostdiffsrvrate</name>
				<interior color="e5f6f7" />
				<outline color="0000bb" />
				<font color="000000" name="MS Sans Serif" size="8" />
				<position>-38 -18 38 18</position>
			</node>
			<node id="dsthostsamesrcportrate">
				<name>dsthostsamesrcportrate</name>
				<interior color="e5f6f7" />
				<outline color="0000bb" />
				<font color="000000" name="MS Sans Serif" size="8" />
				<position>-38 -18 38 18</position>
			</node>
			<node id="dsthostsrvdiffhostrate">
				<name>dsthostsrvdiffhostrate</name>
				<interior color="e5f6f7" />
				<outline color="0000bb" />
				<font color="000000" name="MS Sans Serif" size="8" />
				<position>-38 -18 38 18</position>
			</node>
			<node id="dsthostserrorrate">
				<name>dsthostserrorrate</name>
				<interior color="e5f6f7" />
				<outline color="0000bb" />
				<font color="000000" name="MS Sans Serif" size="8" />
				<position>-38 -18 38 18</position>
			</node>
			<node id="dsthostsrvserrorrate">
				<name>dsthostsrvserrorrate</name>
				<interior color="e5f6f7" />
				<outline color="0000bb" />
				<font color="000000" name="MS Sans Serif" size="8" />
				<position>-38 -18 38 18</position>
			</node>
			<node id="label">
				<name>label</name>
				<interior color="e5f6f7" />
				<outline color="0000bb" />
				<font color="000000" name="MS Sans Serif" size="8" />
				<position>-38 -18 38 18</position>
			</node>
		</genie>
	</extensions>
</smile>
